{"learner":{"attributes":{"scikit_learn":"{\"_estimator_type\": \"regressor\"}"},"feature_names":["charge_cycles","avg_temperature","avg_cpu_load","ssd_tbw","ram_swap_stress"],"feature_types":["int","float","float","int","float"],"gradient_booster":{"model":{"gbtree_model_param":{"num_parallel_tree":"1","num_trees":"200"},"iteration_indptr":[0,1,2,3,4,5,6,7,8,9,10,11,12,13,14,15,16,17,18,19,20,21,22,23,24,25,26,27,28,29,30,31,32,33,34,35,36,37,38,39,40,41,42,43,44,45,46,47,48,49,50,51,52,53,54,55,56,57,58,59,60,61,62,63,64,65,66,67,68,69,70,71,72,73,74,75,76,77,78,79,80,81,82,83,84,85,86,87,88,89,90,91,92,93,94,95,96,97,98,99,100,101,102,103,104,105,106,107,108,109,110,111,112,113,114,115,116,117,118,119,120,121,122,123,124,125,126,127,128,129,130,131,132,133,134,135,136,137,138,139,140,141,142,143,144,145,146,147,148,149,150,151,152,153,154,155,156,157,158,159,160,161,162,163,164,165,166,167,168,169,170,171,172,173,174,175,176,177,178,179,180,181,182,183,184,185,186,187,188,189,190,191,192,193,194,195,196,197,198,199,200],"tree_info":[0,0,0,0,0,0,0,0,0,0,0,0,0,0,0,0,0,0,0,0,0,0,0,0,0,0,0,0,0,0,0,0,0,0,0,0,0,0,0,0,0,0,0,0,0,0,0,0,0,0,0,0,0,0,0,0,0,0,0,0,0,0,0,0,0,0,0,0,0,0,0,0,0,0,0,0,0,0,0,0,0,0,0,0,0,0,0,0,0,0,0,0,0,0,0,0,0,0,0,0,0,0,0,0,0,0,0,0,0,0,0,0,0,0,0,0,0,0,0,0,0,0,0,0,0,0,0,0,0,0,0,0,0,0,0,0,0,0,0,0,0,0,0,0,0,0,0,0,0,0,0,0,0,0,0,0,0,0,0,0,0,0,0,0,0,0,0,0,0,0,0,0,0,0,0,0,0,0,0,0,0,0,0,0,0,0,0,0,0,0,0,0,0,0,0,0,0,0,0,0],"trees":[{"base_weights":[5.800429E1,6.5918686E1,4.4454876E1,7.162304E1,5.6633564E1,5.002519E1,3.8741333E1,7.70631E1,6.33607E1,6.067596E1,5.2162704E1,2.6338441E0,2.3780227E0,4.0830086E1,1.7735046E0,8.039116E1,7.08877E1,3.335558E0,2.9737542E0,6.0886387E1,2.0892045E0,2.6345766E0,2.232845E0,2.1218026E0,1.9617697E0,4.197934E0,3.7939146E0,3.564685E0,2.5386696E0,3.1262333E0,2.9003787E0],"categories":[],"categories_nodes":[],"categories_segments":[],"categories_sizes":[],"default_left":[0,0,0,0,0,0,0,0,0,0,0,0,0,0,0,0,0,0,0,0,0,0,0,0,0,0,0,0,0,0,0],"id":0,"left_children":[1,3,5,7,9,11,13,15,17,19,21,-1,-1,23,-1,25,27,-1,-1,29,-1,-1,-1,-1,-1,-1,-1,-1,-1,-1,-1],"loss_changes":[6.8048E5,2.0892E5,7.2949E4,1.06901E5,2.45765E4,5.25925E3,6.51875E3,2.5027E4,8.96E3,6.3625E2,5.68125E2,0E0,0E0,1.405E2,0E0,9.1495E3,7.245E2,0E0,0E0,9.425E1,0E0,0E0,0E0,0E0,0E0,0E0,0E0,0E0,0E0,0E0,0E0],"parents":[2147483647,0,0,1,1,2,2,3,3,4,4,5,5,6,6,7,7,8,8,9,9,10,10,13,13,15,15,16,16,19,19],"right_children":[2,4,6,8,10,12,14,16,18,20,22,-1,-1,24,-1,26,28,-1,-1,30,-1,-1,-1,-1,-1,-1,-1,-1,-1,-1,-1],"split_conditions":[6.2E1,6.29E2,8.2E1,3.7E1,8.31E2,7.1E1,9.3E1,4.17E2,5.1E1,5.2345688E1,4.571415E1,2.6338441E0,2.3780227E0,8.7E1,1.7735046E0,2E1,5.2345688E1,3.335558E0,2.9737542E0,7.52E2,2.0892045E0,2.6345766E0,2.232845E0,2.1218026E0,1.9617697E0,4.197934E0,3.7939146E0,3.564685E0,2.5386696E0,3.1262333E0,2.9003787E0],"split_indices":[3,0,3,3,0,3,3,0,3,1,1,0,0,3,0,3,1,0,0,0,0,0,0,0,0,0,0,0,0,0,0],"split_type":[0,0,0,0,0,0,0,0,0,0,0,0,0,0,0,0,0,0,0,0,0,0,0,0,0,0,0,0,0,0,0],"sum_hessian":[6.372E3,4.02E3,2.352E3,2.486E3,1.534E3,1.187E3,1.165E3,1.494E3,9.92E2,7.99E2,7.35E2,5.62E2,6.25E2,7.04E2,4.61E2,9.63E2,5.31E2,5.24E2,4.68E2,7.88E2,1.1E1,6.81E2,5.4E1,3.38E2,3.66E2,5.28E2,4.35E2,5.18E2,1.3E1,4.89E2,2.99E2],"tree_param":{"num_deleted":"0","num_feature":"5","num_nodes":"31","size_leaf_vector":"1"}},{"base_weights":[5.506334E1,6.2867218E1,4.247299E1,6.837564E1,5.3980595E1,4.801954E1,3.7178066E1,7.299063E1,6.0002033E1,5.786596E1,4.960678E1,5.077897E1,4.3937145E1,4.0549023E1,3.293586E1,7.582509E1,3.3446312E0,6.2323357E1,2.7303452E0,2.973049E0,2.7459273E0,2.5628629E0,2.3608253E0,2.627165E0,2.3633077E0,4.5194717E1,1.9903609E0,2.145338E0,1.8910853E0,3.5125927E1,2.9779226E1,3.9240048E0,3.5016122E0,3.2274244E0,2.927738E0,2.3202884E0,2.0195053E0,1.8328243E0,1.5687655E0,1.5568973E0,1.3173616E0],"categories":[],"categories_nodes":[],"categories_segments":[],"categories_sizes":[],"default_left":[0,0,0,0,0,0,0,0,0,0,0,0,0,0,0,0,0,0,0,0,0,0,0,0,0,0,0,0,0,0,0,0,0,0,0,0,0,0,0,0,0],"id":1,"left_children":[1,3,5,7,9,11,13,15,17,19,21,23,25,27,29,31,-1,33,-1,-1,-1,-1,-1,-1,-1,35,-1,-1,-1,37,39,-1,-1,-1,-1,-1,-1,-1,-1,-1,-1],"loss_changes":[6.28708E5,1.90401E5,7.05205E4,9.0067E4,2.2994E4,1.127575E4,1.6739875E4,2.2082E4,7.5425E3,4.955E2,4.32125E2,1.91075E3,7.51125E2,2.8785E3,2.8599375E3,1.0884E4,0E0,1.28525E3,0E0,0E0,0E0,0E0,0E0,0E0,0E0,2.7275E2,0E0,0E0,0E0,7.3278125E2,2.8942188E2,0E0,0E0,0E0,0E0,0E0,0E0,0E0,0E0,0E0,0E0],"parents":[2147483647,0,0,1,1,2,2,3,3,4,4,5,5,6,6,7,7,8,8,9,9,10,10,11,11,12,12,13,13,14,14,15,15,17,17,25,25,29,29,30,30],"right_children":[2,4,6,8,10,12,14,16,18,20,22,24,26,28,30,32,-1,34,-1,-1,-1,-1,-1,-1,-1,36,-1,-1,-1,38,40,-1,-1,-1,-1,-1,-1,-1,-1,-1,-1],"split_conditions":[6.1E1,6.29E2,8.1E1,3.9E1,8.31E2,3.520606E1,3.3869232E1,4.36E2,3.9934135E1,7.52E2,9.27E2,7.4E1,7.6E1,9.1E1,9.2E1,2.6E1,3.3446312E0,5.3E1,2.7303452E0,2.973049E0,2.7459273E0,2.5628629E0,2.3608253E0,2.627165E0,2.3633077E0,6.624242E1,1.9903609E0,2.145338E0,1.8910853E0,5.8110016E1,5.7310486E1,3.9240048E0,3.5016122E0,3.2274244E0,2.927738E0,2.3202884E0,2.0195053E0,1.8328243E0,1.5687655E0,1.5568973E0,1.3173616E0],"split_indices":[3,0,3,3,0,4,4,0,4,0,0,3,3,3,3,3,0,3,0,0,0,0,0,0,0,4,0,0,0,4,4,0,0,0,0,0,0,0,0,0,0],"split_type":[0,0,0,0,0,0,0,0,0,0,0,0,0,0,0,0,0,0,0,0,0,0,0,0,0,0,0,0,0,0,0,0,0,0,0,0,0,0,0,0,0],"sum_hessian":[6.425E3,3.964E3,2.461E3,2.443E3,1.521E3,1.198E3,1.263E3,1.57E3,8.73E2,7.99E2,7.22E2,7.08E2,4.9E2,6.99E2,5.64E2,1.064E3,5.06E2,6.03E2,2.7E2,5.06E2,2.93E2,4.15E2,3.07E2,4.62E2,2.46E2,3.68E2,1.22E2,3.67E2,3.32E2,3.27E2,2.37E2,7.21E2,3.43E2,3.69E2,2.34E2,2.87E2,8.1E1,2.26E2,1.01E2,1.64E2,7.3E1],"tree_param":{"num_deleted":"0","num_feature":"5","num_nodes":"41","size_leaf_vector":"1"}},{"base_weights":[5.227558E1,5.9661373E1,4.0431E1,6.479999E1,5.1266552E1,4.5325546E1,3.4963486E1,6.982667E1,5.799517E1,5.499758E1,4.7185463E1,4.7889732E1,4.1338432E1,3.8242157E1,3.1023779E1,7.29541E1,3.2050176E0,6.0668217E1,5.387244E1,2.820404E0,2.6141393E0,2.4677486E0,2.2730813E0,2.5111353E0,2.2549787E0,2.1933768E0,3.889977E1,2.0390925E0,1.8016175E0,3.32201E1,2.8395876E1,3.7923825E0,3.4649167E0,3.1244218E0,2.7806041E0,2.8134692E0,2.4355435E0,2.03311E0,1.7799147E0,1.7077658E0,1.3945462E0,1.4882349E0,1.2466961E0],"categories":[],"categories_nodes":[],"categories_segments":[],"categories_sizes":[],"default_left":[0,0,0,0,0,0,0,0,0,0,0,0,0,0,0,0,0,0,0,0,0,0,0,0,0,0,0,0,0,0,0,0,0,0,0,0,0,0,0,0,0,0,0],"id":2,"left_children":[1,3,5,7,9,11,13,15,17,19,21,23,25,27,29,31,-1,33,35,-1,-1,-1,-1,-1,-1,-1,37,-1,-1,39,41,-1,-1,-1,-1,-1,-1,-1,-1,-1,-1,-1,-1],"loss_changes":[5.5607E5,1.66209E5,6.41135E4,7.9206E4,2.0199E4,1.122925E4,1.3849125E4,2.0307E4,8.19275E3,2.225E1,4.565E2,2.81225E3,1.4575625E3,2.0718125E3,2.1387812E3,4.211E3,0E0,2.2585E3,2.4305E3,0E0,0E0,0E0,0E0,0E0,0E0,0E0,1.235E2,0E0,0E0,4.6778125E2,4.425625E2,0E0,0E0,0E0,0E0,0E0,0E0,0E0,0E0,0E0,0E0,0E0,0E0],"parents":[2147483647,0,0,1,1,2,2,3,3,4,4,5,5,6,6,7,7,8,8,9,9,10,10,11,11,12,12,13,13,14,14,15,15,17,17,18,18,26,26,29,29,30,30],"right_children":[2,4,6,8,10,12,14,16,18,20,22,24,26,28,30,32,-1,34,36,-1,-1,-1,-1,-1,-1,-1,38,-1,-1,40,42,-1,-1,-1,-1,-1,-1,-1,-1,-1,-1,-1,-1],"split_conditions":[6.1E1,6.29E2,8.2E1,3.5E1,8.27E2,3.6396366E1,3.281692E1,4.2E2,5.1E1,7.52E2,9.03E2,7.2E1,7E1,9E1,9.2E1,1.9E1,3.2050176E0,4.524759E1,3.860745E1,2.820404E0,2.6141393E0,2.4677486E0,2.2730813E0,2.5111353E0,2.2549787E0,2.1933768E0,5.6528927E1,2.0390925E0,1.8016175E0,6.756135E1,5.7310486E1,3.7923825E0,3.4649167E0,3.1244218E0,2.7806041E0,2.8134692E0,2.4355435E0,2.03311E0,1.7799147E0,1.7077658E0,1.3945462E0,1.4882349E0,1.2466961E0],"split_indices":[3,0,3,3,0,4,4,0,3,0,0,3,3,3,3,3,0,4,4,0,0,0,0,0,0,0,4,0,0,4,4,0,0,0,0,0,0,0,0,0,0,0,0],"split_type":[0,0,0,0,0,0,0,0,0,0,0,0,0,0,0,0,0,0,0,0,0,0,0,0,0,0,0,0,0,0,0,0,0,0,0,0,0,0,0,0,0,0,0],"sum_hessian":[6.383E3,3.929E3,2.454E3,2.433E3,1.496E3,1.291E3,1.163E3,1.394E3,1.039E3,7.75E2,7.21E2,7.79E2,5.12E2,6.3E2,5.33E2,8.94E2,5E2,6.22E2,4.17E2,4.97E2,2.78E2,3.07E2,4.14E2,4.15E2,3.64E2,2.43E2,2.69E2,2.85E2,3.45E2,2.84E2,2.49E2,4.88E2,4.06E2,4.49E2,1.73E2,2.78E2,1.39E2,1.68E2,1.01E2,2.37E2,4.7E1,1.73E2,7.6E1],"tree_param":{"num_deleted":"0","num_feature":"5","num_nodes":"43","size_leaf_vector":"1"}},{"base_weights":[4.9616573E1,5.6115395E1,3.760868E1,5.9235493E1,5.118397E1,4.1777397E1,3.273508E1,5.9889175E1,2.6027532E0,5.3960857E1,4.8592983E1,4.4337788E1,3.805063E1,3.592816E1,2.9235088E1,3.0809531E0,5.8216297E1,2.7704935E0,2.5606103E0,2.5252182E0,4.5851788E1,2.321275E0,2.0755033E0,3.9880848E1,1.7496424E0,1.8673525E0,1.6644363E0,3.0592707E1,2.5968567E1,2.9683151E0,2.769201E0,2.359338E0,2.0770223E0,2.046621E0,1.7595875E0,1.6088587E0,1.4138067E0,1.3802894E0,1.1546943E0],"categories":[],"categories_nodes":[],"categories_segments":[],"categories_sizes":[],"default_left":[0,0,0,0,0,0,0,0,0,0,0,0,0,0,0,0,0,0,0,0,0,0,0,0,0,0,0,0,0,0,0,0,0,0,0,0,0,0,0],"id":3,"left_children":[1,3,5,7,9,11,13,15,-1,17,19,21,23,25,27,-1,29,-1,-1,-1,31,-1,-1,33,-1,-1,-1,35,37,-1,-1,-1,-1,-1,-1,-1,-1,-1,-1],"loss_changes":[4.9678E5,6.0761E4,4.430425E4,8.772E3,8.9905E3,9.83975E3,1.0583625E4,3.1115E3,0E0,2.29E2,2.111625E3,2.264375E3,1.3970625E3,7.790625E2,1.4317812E3,0E0,6.045E2,0E0,0E0,0E0,1.003125E2,0E0,0E0,6.35E1,0E0,0E0,0E0,3.7115625E2,8.727344E1,0E0,0E0,0E0,0E0,0E0,0E0,0E0,0E0,0E0,0E0],"parents":[2147483647,0,0,1,1,2,2,3,3,4,4,5,5,6,6,7,7,9,9,10,10,11,11,12,12,13,13,14,14,16,16,20,20,23,23,27,27,28,28],"right_children":[2,4,6,8,10,12,14,16,-1,18,20,22,24,26,28,-1,30,-1,-1,-1,32,-1,-1,34,-1,-1,-1,36,38,-1,-1,-1,-1,-1,-1,-1,-1,-1,-1],"split_conditions":[6.4E1,3.9E1,8.4E1,4.470245E1,2.9088135E1,3.520606E1,3.212617E1,1.8E1,2.6027532E0,5.6E1,5.4E1,7.6E1,7.6E1,9.4E1,5.5500443E1,3.0809531E0,4.3910896E1,2.7704935E0,2.5606103E0,2.5252182E0,5.7310486E1,2.321275E0,2.0755033E0,6.756135E1,1.7496424E0,1.8673525E0,1.6644363E0,9.3E1,9.4E1,2.9683151E0,2.769201E0,2.359338E0,2.0770223E0,2.046621E0,1.7595875E0,1.6088587E0,1.4138067E0,1.3802894E0,1.1546943E0],"split_indices":[3,3,3,1,4,4,4,3,0,3,3,3,3,3,4,0,4,0,0,0,4,0,0,4,0,0,0,3,3,0,0,0,0,0,0,0,0,0,0],"split_type":[0,0,0,0,0,0,0,0,0,0,0,0,0,0,0,0,0,0,0,0,0,0,0,0,0,0,0,0,0,0,0,0,0,0,0,0,0,0,0],"sum_hessian":[6.392E3,4.145E3,2.247E3,2.532E3,1.613E3,1.207E3,1.04E3,2.314E3,2.18E2,7.69E2,8.44E2,7.09E2,4.98E2,5.39E2,5.01E2,1.12E3,1.194E3,4.91E2,2.78E2,4.87E2,3.57E2,3.99E2,3.1E2,3.04E2,1.94E2,3.42E2,1.97E2,3.48E2,1.53E2,8.35E2,3.59E2,2.65E2,9.2E1,2.42E2,6.2E1,1.99E2,1.49E2,9.2E1,6.1E1],"tree_param":{"num_deleted":"0","num_feature":"5","num_nodes":"39","size_leaf_vector":"1"}},{"base_weights":[4.7278503E1,4.983379E1,4.1265785E1,5.212742E1,4.7428154E1,4.3074924E1,3.8939846E1,5.370623E1,2.4443445E0,4.810248E1,2.205167E0,4.3718693E1,1.9279944E0,3.903276E1,1.1087286E0,2.7430804E0,2.5978777E0,2.4706657E0,4.592895E1,2.205692E0,1.8512055E0,1.9719785E0,1.735689E0,2.3094234E0,1.7915821E0],"categories":[],"categories_nodes":[],"categories_segments":[],"categories_sizes":[],"default_left":[0,0,0,0,0,0,0,0,0,0,0,0,0,0,0,0,0,0,0,0,0,0,0,0,0],"id":4,"left_children":[1,3,5,7,9,11,13,15,-1,17,-1,19,-1,21,-1,-1,-1,-1,23,-1,-1,-1,-1,-1,-1],"loss_changes":[9.6506E4,2.2341E4,6.39775E3,9.1005E3,2.8245E3,1.42425E3,4.585E2,2.425E2,0E0,2.9245E3,0E0,8.2425E2,0E0,1.13875E2,0E0,0E0,0E0,0E0,1.7925E2,0E0,0E0,0E0,0E0,0E0,0E0],"parents":[2147483647,0,0,1,1,2,2,3,3,4,4,5,5,6,6,7,7,9,9,11,11,13,13,18,18],"right_children":[2,4,6,8,10,12,14,16,-1,18,-1,20,-1,22,-1,-1,-1,-1,24,-1,-1,-1,-1,-1,-1],"split_conditions":[6.99E2,2.99999E1,8.74E2,4.75E2,6.424409E1,5.9019974E1,5.1021362E1,1.730978E1,2.4443445E0,4.5E2,2.205167E0,4.6383896E1,1.9279944E0,6.3141953E1,1.1087286E0,2.7430804E0,2.5978777E0,2.4706657E0,4.9249046E1,2.205692E0,1.8512055E0,1.9719785E0,1.735689E0,2.3094234E0,1.7915821E0],"split_indices":[0,4,0,0,4,4,1,4,0,0,0,1,0,4,0,0,0,0,1,0,0,0,0,0,0],"split_type":[0,0,0,0,0,0,0,0,0,0,0,0,0,0,0,0,0,0,0,0,0,0,0,0,0],"sum_hessian":[6.414E3,4.496E3,1.918E3,2.291E3,2.205E3,1.069E3,8.49E2,1.53E3,7.61E2,1.822E3,3.83E2,9.28E2,1.41E2,8.43E2,6E0,9.03E2,6.27E2,1.123E3,6.99E2,8.71E2,5.7E1,7.63E2,8E1,6.78E2,2.1E1],"tree_param":{"num_deleted":"0","num_feature":"5","num_nodes":"25","size_leaf_vector":"1"}},{"base_weights":[4.475342E1,5.1401035E1,3.3822163E1,5.609838E1,4.373566E1,3.835447E1,2.9243406E1,6.092388E1,4.9732025E1,2.3718514E0,4.0317726E1,4.1162304E1,3.5681213E1,3.23282E1,2.6235704E1,6.3984093E1,2.7909167E0,5.2851425E1,4.652001E1,2.1001232E0,1.8995295E0,2.1481776E0,1.9191532E0,1.9116586E0,3.3715073E1,1.713027E0,1.4966156E0,2.8356981E1,2.4111969E1,3.3287084E0,2.997864E0,2.7193224E0,2.3839433E0,2.4145591E0,2.0416448E0,1.7532686E0,1.508234E0,1.5057831E0,1.2844888E0,1.2592438E0,1.0443635E0],"categories":[],"categories_nodes":[],"categories_segments":[],"categories_sizes":[],"default_left":[0,0,0,0,0,0,0,0,0,0,0,0,0,0,0,0,0,0,0,0,0,0,0,0,0,0,0,0,0,0,0,0,0,0,0,0,0,0,0,0,0],"id":5,"left_children":[1,3,5,7,9,11,13,15,17,-1,19,21,23,25,27,29,-1,31,33,-1,-1,-1,-1,-1,35,-1,-1,37,39,-1,-1,-1,-1,-1,-1,-1,-1,-1,-1,-1,-1],"loss_changes":[4.65799E5,1.41539E5,4.9431E4,7.3034E4,1.73675E4,7.696125E3,1.04340625E4,1.8365E4,8.29225E3,0E0,1.537E3,1.2995625E3,1.8870625E3,1.7338125E3,2.1139062E3,5.09275E3,0E0,1.67075E3,3.43725E3,0E0,0E0,0E0,0E0,0E0,6.969375E2,0E0,0E0,6.57E2,5.7071875E2,0E0,0E0,0E0,0E0,0E0,0E0,0E0,0E0,0E0,0E0,0E0,0E0],"parents":[2147483647,0,0,1,1,2,2,3,3,4,4,5,5,6,6,7,7,8,8,10,10,11,11,12,12,13,13,14,14,15,15,17,17,18,18,24,24,27,27,28,28],"right_children":[2,4,6,8,10,12,14,16,18,-1,20,22,24,26,28,30,-1,32,34,-1,-1,-1,-1,-1,36,-1,-1,38,40,-1,-1,-1,-1,-1,-1,-1,-1,-1,-1,-1,-1],"split_conditions":[6.2E1,6.26E2,8.2E1,3.5E1,8.13E2,2.848883E1,2.99999E1,4.02E2,4.9E1,2.3718514E0,9.2E2,7.4E1,7E1,9.2E1,9.1E1,2.1E1,2.7909167E0,4.968411E1,4.524759E1,2.1001232E0,1.8995295E0,2.1481776E0,1.9191532E0,1.9116586E0,5.4071297E1,1.713027E0,1.4966156E0,4.939243E1,5.6528927E1,3.3287084E0,2.997864E0,2.7193224E0,2.3839433E0,2.4145591E0,2.0416448E0,1.7532686E0,1.508234E0,1.5057831E0,1.2844888E0,1.2592438E0,1.0443635E0],"split_indices":[3,0,3,3,0,4,4,0,3,0,0,3,3,3,3,3,0,4,4,0,0,0,0,0,4,0,0,4,4,0,0,0,0,0,0,0,0,0,0,0,0],"split_type":[0,0,0,0,0,0,0,0,0,0,0,0,0,0,0,0,0,0,0,0,0,0,0,0,0,0,0,0,0,0,0,0,0,0,0,0,0,0,0,0,0],"sum_hessian":[6.433E3,3.998E3,2.435E3,2.475E3,1.523E3,1.22E3,1.215E3,1.403E3,1.072E3,7.25E2,7.98E2,5.88E2,6.32E2,5.95E2,6.2E2,8.7E2,5.33E2,5.36E2,5.36E2,4.53E2,3.45E2,3.48E2,2.4E2,2.67E2,3.65E2,3.22E2,2.73E2,3.04E2,3.16E2,5.2E2,3.5E2,4.06E2,1.3E2,4.03E2,1.33E2,2.58E2,1.07E2,1.77E2,1.27E2,2.32E2,8.4E1],"tree_param":{"num_deleted":"0","num_feature":"5","num_nodes":"41","size_leaf_vector":"1"}},{"base_weights":[4.265024E1,4.500889E1,3.717759E1,4.761442E1,4.271795E1,3.8548153E1,3.478415E1,4.918326E1,4.440113E1,4.324086E1,1.8767912E0,3.874143E1,1.4475176E0,1.7479422E0,1.022868E0,2.5069342E0,2.3517072E0,2.2351725E0,1.7649716E0,2.2342565E0,4.1803257E1,3.9042976E1,1.6458515E0,2.1012743E0,1.6809657E0,2.001879E0,1.8662537E0],"categories":[],"categories_nodes":[],"categories_segments":[],"categories_sizes":[],"default_left":[0,0,0,0,0,0,0,0,0,0,0,0,0,0,0,0,0,0,0,0,0,0,0,0,0,0,0],"id":6,"left_children":[1,3,5,7,9,11,13,15,17,19,-1,21,-1,-1,-1,-1,-1,-1,-1,-1,23,25,-1,-1,-1,-1,-1],"loss_changes":[8.0796E4,2.4588E4,4.99025E3,8.2915E3,4.8345E3,1.137875E3,1.069375E3,4.8975E2,3.26125E2,2.6125E3,0E0,8.065E2,0E0,0E0,0E0,0E0,0E0,0E0,0E0,0E0,5.8225E2,4.3125E2,0E0,0E0,0E0,0E0,0E0],"parents":[2147483647,0,0,1,1,2,2,3,3,4,4,5,5,6,6,7,7,8,8,9,9,11,11,20,20,21,21],"right_children":[2,4,6,8,10,12,14,16,18,20,-1,22,-1,-1,-1,-1,-1,-1,-1,-1,24,26,-1,-1,-1,-1,-1],"split_conditions":[6.99E2,2.7572695E1,8.91E2,4.75E2,7.164077E1,7.6492805E1,5.1021362E1,1.8343214E1,4.8282055E1,3.55E2,1.8767912E0,4.6719017E1,1.4475176E0,1.7479422E0,1.022868E0,2.5069342E0,2.3517072E0,2.2351725E0,1.7649716E0,2.2342565E0,4.9249046E1,3.788804E1,1.6458515E0,2.1012743E0,1.6809657E0,2.001879E0,1.8662537E0],"split_indices":[0,4,0,0,4,4,1,4,1,0,0,1,0,0,0,0,0,0,0,0,1,4,0,0,0,0,0],"split_type":[0,0,0,0,0,0,0,0,0,0,0,0,0,0,0,0,0,0,0,0,0,0,0,0,0,0,0],"sum_hessian":[6.388E3,4.459E3,1.929E3,2.077E3,2.382E3,1.217E3,7.12E2,1.386E3,6.91E2,2.157E3,2.25E2,1.19E3,2.7E1,7.02E2,1E1,9.44E2,4.42E2,6.65E2,2.6E1,1.061E3,1.096E3,1.126E3,6.4E1,1.063E3,3.3E1,6.99E2,4.27E2],"tree_param":{"num_deleted":"0","num_feature":"5","num_nodes":"27","size_leaf_vector":"1"}},{"base_weights":[4.0397114E1,4.6335785E1,2.9629564E1,4.9962284E1,3.8650173E1,3.3447266E1,2.5135393E1,5.386723E1,4.2792904E1,2.0601826E0,3.5664383E1,3.652266E1,3.1197924E1,2.7883673E1,2.2115288E1,5.6296574E1,2.4090898E0,4.48214E1,3.8550354E1,1.8199209E0,1.6478106E0,1.9040483E0,1.6949418E0,3.2894238E1,2.8545128E1,2.9384668E1,1.2856277E0,2.3702265E1,1.993727E1,2.9510365E0,2.590432E0,2.3536117E0,2.1279006E0,2.0457933E0,1.7849118E0,1.7153157E0,1.4852004E0,1.4879502E0,1.2281178E0,1.5433992E0,1.3717968E0,1.2525576E0,1.0679458E0,1.0322905E0,7.9374343E-1],"categories":[],"categories_nodes":[],"categories_segments":[],"categories_sizes":[],"default_left":[0,0,0,0,0,0,0,0,0,0,0,0,0,0,0,0,0,0,0,0,0,0,0,0,0,0,0,0,0,0,0,0,0,0,0,0,0,0,0,0,0,0,0,0,0],"id":7,"left_children":[1,3,5,7,9,11,13,15,17,-1,19,21,23,25,27,29,-1,31,33,-1,-1,-1,-1,35,37,39,-1,41,43,-1,-1,-1,-1,-1,-1,-1,-1,-1,-1,-1,-1,-1,-1,-1,-1],"loss_changes":[4.09345E5,1.13403E5,3.838125E4,7.63075E4,8.678125E3,7.39E3,8.131625E3,2.23425E4,6.83525E3,0E0,3.49375E1,8.148125E2,2.2965E3,1.03025E3,1.279875E3,1.240775E4,0E0,1.394625E3,7.5903125E2,0E0,0E0,0E0,0E0,9.270625E2,6.613906E2,6.94375E1,0E0,3.7526562E2,3.054922E2,0E0,0E0,0E0,0E0,0E0,0E0,0E0,0E0,0E0,0E0,0E0,0E0,0E0,0E0,0E0,0E0],"parents":[2147483647,0,0,1,1,2,2,3,3,4,4,5,5,6,6,7,7,8,8,10,10,11,11,12,12,13,13,14,14,15,15,17,17,18,18,23,23,24,24,25,25,27,27,28,28],"right_children":[2,4,6,8,10,12,14,16,18,-1,20,22,24,26,28,30,-1,32,34,-1,-1,-1,-1,36,38,40,-1,42,44,-1,-1,-1,-1,-1,-1,-1,-1,-1,-1,-1,-1,-1,-1,-1,-1],"split_conditions":[6.4E1,6.86E2,8.4E1,4.2E1,8.57E2,2.441873E1,3.212617E1,4.88E2,3.9934135E1,2.0601826E0,9.65E2,7.7E1,7.6E1,9.3E1,9.3E1,2.6E1,2.4090898E0,5.3E1,5.5E1,1.8199209E0,1.6478106E0,1.9040483E0,1.6949418E0,5.341098E1,5.5500443E1,1.6786764E1,1.2856277E0,5.2507126E1,6.5399506E1,2.9510365E0,2.590432E0,2.3536117E0,2.1279006E0,2.0457933E0,1.7849118E0,1.7153157E0,1.4852004E0,1.4879502E0,1.2281178E0,1.5433992E0,1.3717968E0,1.2525576E0,1.0679458E0,1.0322905E0,7.9374343E-1],"split_indices":[3,0,3,3,0,4,4,0,4,0,0,3,3,3,3,3,0,3,3,0,0,0,0,4,4,4,0,4,4,0,0,0,0,0,0,0,0,0,0,0,0,0,0,0,0],"split_type":[0,0,0,0,0,0,0,0,0,0,0,0,0,0,0,0,0,0,0,0,0,0,0,0,0,0,0,0,0,0,0,0,0,0,0,0,0,0,0,0,0,0,0,0,0],"sum_hessian":[6.422E3,4.137E3,2.285E3,2.807E3,1.33E3,1.232E3,1.053E3,1.813E3,9.94E2,7.1E2,6.2E2,5.14E2,7.18E2,5.47E2,5.06E2,1.264E3,5.49E2,6.66E2,3.28E2,4.78E2,1.42E2,3.14E2,2E2,4.31E2,2.87E2,3.16E2,2.31E2,2.87E2,2.19E2,7.79E2,4.85E2,3.24E2,3.42E2,1.72E2,1.56E2,2.92E2,1.39E2,2.15E2,7.2E1,1.71E2,1.45E2,1.76E2,1.11E2,1.83E2,3.6E1],"tree_param":{"num_deleted":"0","num_feature":"5","num_nodes":"45","size_leaf_vector":"1"}},{"base_weights":[3.845413E1,4.0533875E1,3.356739E1,4.3646362E1,3.903422E1,3.5071014E1,3.1642883E1,2.2789173E0,4.112277E1,4.0289974E1,3.7185257E1,3.5629017E1,1.5431772E0,3.1873955E1,2.2696363E1,2.0682542E0,1.5993737E0,4.125582E1,3.8669426E1,3.7863277E1,1.6818346E0,1.7922754E0,1.3933654E0,1.625528E0,1.4885697E0,1.1713883E0,4.761746E-1,2.0780275E0,1.8130015E0,1.1906356E0,1.9382466E0,1.9159403E0,1.6077397E0],"categories":[],"categories_nodes":[],"categories_segments":[],"categories_sizes":[],"default_left":[0,0,0,0,0,0,0,0,0,0,0,0,0,0,0,0,0,0,0,0,0,0,0,0,0,0,0,0,0,0,0,0,0],"id":8,"left_children":[1,3,5,7,9,11,13,-1,15,17,19,21,-1,23,25,-1,-1,27,29,31,-1,-1,-1,-1,-1,-1,-1,-1,-1,-1,-1,-1,-1],"loss_changes":[6.4009E4,1.93335E4,4.4635E3,5.22925E3,5.586E3,1.417125E3,1.044125E3,0E0,9.8E1,1.22975E3,1.72675E3,5.80625E2,0E0,1.444375E2,1.775293E1,0E0,0E0,1.91875E2,5.60625E1,1.469625E3,0E0,0E0,0E0,0E0,0E0,0E0,0E0,0E0,0E0,0E0,0E0,0E0,0E0],"parents":[2147483647,0,0,1,1,2,2,3,3,4,4,5,5,6,6,8,8,9,9,10,10,11,11,13,13,14,14,17,17,18,18,19,19],"right_children":[2,4,6,8,10,12,14,-1,16,18,20,22,-1,24,26,-1,-1,28,30,32,-1,-1,-1,-1,-1,-1,-1,-1,-1,-1,-1,-1,-1],"split_conditions":[6.99E2,1.8591148E1,8.74E2,3.95E2,4.364249E1,5.9019974E1,4.8910385E1,2.2789173E0,4.8282055E1,4.5E2,5.93E2,4.85915E1,1.5431772E0,9.7E2,5.5256607E1,2.0682542E0,1.5993737E0,4.6383896E1,4.54E2,8.162501E1,1.6818346E0,1.7922754E0,1.3933654E0,1.625528E0,1.4885697E0,1.1713883E0,4.761746E-1,2.0780275E0,1.8130015E0,1.1906356E0,1.9382466E0,1.9159403E0,1.6077397E0],"split_indices":[0,4,0,0,4,4,1,0,1,0,0,1,0,0,1,0,0,1,0,4,0,0,0,0,0,0,0,0,0,0,0,0,0],"split_type":[0,0,0,0,0,0,0,0,0,0,0,0,0,0,0,0,0,0,0,0,0,0,0,0,0,0,0,0,0,0,0,0,0],"sum_hessian":[6.431E3,4.506E3,1.925E3,1.456E3,3.05E3,1.071E3,8.54E2,8.15E2,6.41E2,1.804E3,1.246E3,9.39E2,1.32E2,8.3E2,2.4E1,6.21E2,2E1,1.115E3,6.89E2,1.038E3,2.08E2,9.1E2,2.9E1,6.26E2,2.04E2,2.2E1,2E0,1.044E3,7.1E1,6E0,6.83E2,9.56E2,8.2E1],"tree_param":{"num_deleted":"0","num_feature":"5","num_nodes":"33","size_leaf_vector":"1"}},{"base_weights":[3.6569878E1,4.247318E1,2.665985E1,4.602143E1,3.5171833E1,3.072719E1,2.246672E1,4.9322735E1,3.9164238E1,3.8081287E1,3.27476E1,1.6332101E0,1.4472474E0,1.254437E0,2.083797E1,5.1538998E1,4.4127598E1,2.0596633E0,1.83933E0,1.9157631E0,1.2356598E0,3.31681E1,1.3454156E0,1.0991728E0,9.641862E-1,2.6886897E0,2.3280323E0,2.2240822E0,1.5205315E0,1.7168721E0,1.5688332E0],"categories":[],"categories_nodes":[],"categories_segments":[],"categories_sizes":[],"default_left":[0,0,0,0,0,0,0,0,0,0,0,0,0,0,0,0,0,0,0,0,0,0,0,0,0,0,0,0,0,0,0],"id":9,"left_children":[1,3,5,7,9,11,13,15,17,19,21,-1,-1,-1,23,25,27,-1,-1,-1,-1,29,-1,-1,-1,-1,-1,-1,-1,-1,-1],"loss_changes":[3.73455E5,1.02294E5,4.0122E4,5.90995E4,8.035E3,3.238625E3,4.525E3,1.8635E4,2.734875E3,9.046875E2,8.875625E2,0E0,0E0,0E0,8.8465625E2,1.15925E4,1.318375E3,0E0,0E0,0E0,0E0,3.30375E2,0E0,0E0,0E0,0E0,0E0,0E0,0E0,0E0,0E0],"parents":[2147483647,0,0,1,1,2,2,3,3,4,4,5,5,6,6,7,7,8,8,9,9,10,10,14,14,15,15,16,16,21,21],"right_children":[2,4,6,8,10,12,14,16,18,20,22,-1,-1,-1,24,26,28,-1,-1,-1,-1,30,-1,-1,-1,-1,-1,-1,-1,-1,-1],"split_conditions":[6.2E1,6.78E2,8.2E1,4.2E1,8.34E2,7.1E1,8.9E1,4.88E2,5.3E1,4.959922E1,4.553685E1,1.6332101E0,1.4472474E0,1.254437E0,9.5E1,2.8E1,4.8910385E1,2.0596633E0,1.83933E0,1.9157631E0,1.2356598E0,9.27E2,1.3454156E0,1.0991728E0,9.641862E-1,2.6886897E0,2.3280323E0,2.2240822E0,1.5205315E0,1.7168721E0,1.5688332E0],"split_indices":[3,0,3,3,0,3,3,0,3,1,1,0,0,0,3,3,1,0,0,0,0,0,0,0,0,0,0,0,0,0,0],"split_type":[0,0,0,0,0,0,0,0,0,0,0,0,0,0,0,0,0,0,0,0,0,0,0,0,0,0,0,0,0,0,0],"sum_hessian":[6.402E3,4.01E3,2.392E3,2.695E3,1.315E3,1.211E3,1.181E3,1.815E3,8.8E2,5.91E2,7.24E2,5.72E2,6.39E2,4.47E2,7.34E2,1.266E3,5.49E2,4.66E2,4.14E2,5.79E2,1.2E1,6.71E2,5.3E1,4.15E2,3.19E2,8.67E2,3.99E2,5.33E2,1.6E1,3.95E2,2.76E2],"tree_param":{"num_deleted":"0","num_feature":"5","num_nodes":"31","size_leaf_vector":"1"}},{"base_weights":[3.4791103E1,4.0547382E1,2.5577652E1,4.2897648E1,3.6622948E1,2.953223E1,2.1559816E1,4.3351643E1,1.7987881E0,3.872752E1,3.460853E1,3.151152E1,2.6750828E1,2.3317017E1,1.7582718E1,2.2234068E0,4.1496155E1,1.9909986E0,1.8321358E0,1.8217907E0,3.300552E1,1.690548E0,2.9919538E1,2.8533628E1,2.4994505E1,2.5369896E1,2.1536547E1,1.9708538E1,1.57607355E1,2.1290293E0,1.941664E0,1.6771492E0,1.355739E0,1.5604866E0,1.3986102E0,1.4803976E0,1.2399231E0,1.3046812E0,1.1197637E0,1.3686193E0,1.184672E0,1.1767365E0,9.959055E-1,1.0133816E0,7.3882574E-1,8.027927E-1,5.262193E-1],"categories":[],"categories_nodes":[],"categories_segments":[],"categories_sizes":[],"default_left":[0,0,0,0,0,0,0,0,0,0,0,0,0,0,0,0,0,0,0,0,0,0,0,0,0,0,0,0,0,0,0,0,0,0,0,0,0,0,0,0,0,0,0,0,0,0,0],"id":10,"left_children":[1,3,5,7,9,11,13,15,-1,17,19,21,23,25,27,-1,29,-1,-1,-1,31,-1,33,35,37,39,41,43,45,-1,-1,-1,-1,-1,-1,-1,-1,-1,-1,-1,-1,-1,-1,-1,-1,-1,-1],"loss_changes":[3.359485E5,3.44835E4,3.82275E4,6.105E3,4.895875E3,5.928375E3,8.0950625E3,2.8865E3,0E0,1.6025E2,1.0265625E3,1.5984375E3,9.088125E2,2.5275312E3,1.1495781E3,0E0,8.675E2,0E0,0E0,0E0,4.075625E2,0E0,2.0734375E2,2.6895312E2,1.8410938E2,6.439531E2,1.0091406E3,1.6928125E2,1.5245312E2,0E0,0E0,0E0,0E0,0E0,0E0,0E0,0E0,0E0,0E0,0E0,0E0,0E0,0E0,0E0,0E0,0E0,0E0],"parents":[2147483647,0,0,1,1,2,2,3,3,4,4,5,5,6,6,7,7,9,9,10,10,11,11,12,12,13,13,14,14,16,16,20,20,22,22,23,23,24,24,25,25,26,26,27,27,28,28],"right_children":[2,4,6,8,10,12,14,16,-1,18,20,22,24,26,28,-1,30,-1,-1,-1,32,-1,34,36,38,40,42,44,46,-1,-1,-1,-1,-1,-1,-1,-1,-1,-1,-1,-1,-1,-1,-1,-1,-1,-1],"split_conditions":[6.1E1,3.8E1,8.1E1,4.571415E1,2.9088135E1,3.520606E1,4.2685677E1,2.3E1,1.7987881E0,5.3E1,4.9E1,6.9E1,7E1,9E1,9E1,2.2234068E0,4.3910896E1,1.9909986E0,1.8321358E0,1.8217907E0,7.164077E1,1.690548E0,2.0127121E1,6.3141953E1,5.695895E1,1.8101067E1,1.6147076E1,7.454922E1,7.6492805E1,2.1290293E0,1.941664E0,1.6771492E0,1.355739E0,1.5604866E0,1.3986102E0,1.4803976E0,1.2399231E0,1.3046812E0,1.1197637E0,1.3686193E0,1.184672E0,1.1767365E0,9.959055E-1,1.0133816E0,7.3882574E-1,8.027927E-1,5.262193E-1],"split_indices":[3,3,3,1,4,4,4,3,0,3,3,3,3,3,3,0,4,0,0,0,4,0,4,4,4,4,4,4,4,0,0,0,0,0,0,0,0,0,0,0,0,0,0,0,0,0,0],"split_type":[0,0,0,0,0,0,0,0,0,0,0,0,0,0,0,0,0,0,0,0,0,0,0,0,0,0,0,0,0,0,0,0,0,0,0,0,0,0,0,0,0,0,0,0,0,0,0],"sum_hessian":[6.353E3,3.908E3,2.445E3,2.438E3,1.47E3,1.229E3,1.216E3,2.283E3,1.55E2,7.1E2,7.6E2,7.12E2,5.17E2,8.4E2,3.76E2,1.411E3,8.72E2,4.54E2,2.56E2,3.45E2,4.15E2,2.83E2,4.29E2,2.49E2,2.68E2,3.84E2,4.56E2,1.69E2,2.07E2,6.09E2,2.63E2,3.76E2,3.9E1,2.49E2,1.8E2,1.88E2,6.1E1,1.82E2,8.6E1,1.68E2,2.16E2,1.98E2,2.58E2,1.49E2,2E1,1.94E2,1.3E1],"tree_param":{"num_deleted":"0","num_feature":"5","num_nodes":"47","size_leaf_vector":"1"}},{"base_weights":[3.2987568E1,3.541696E1,2.9490486E1,3.760373E1,3.336264E1,3.1701437E1,2.784715E1,3.9169884E1,3.61526E1,3.3799744E1,2.9021544E1,3.255489E1,2.842395E1,2.812266E1,2.203856E1,2.0097718E0,1.8248026E0,1.816667E0,1.3632329E0,1.7275349E0,1.6331692E0,3.1611942E1,2.6837774E1,1.6404003E0,1.2974557E0,2.856324E1,6.584789E-1,2.8792782E1,1.2928301E0,1.14036E0,7.457706E-1,1.4456025E0,1.8464273E0,7.1182895E-1,1.3594462E0,1.4348488E0,6.8495744E-1,1.4558762E0,1.2410663E0],"categories":[],"categories_nodes":[],"categories_segments":[],"categories_sizes":[],"default_left":[0,0,0,0,0,0,0,0,0,0,0,0,0,0,0,0,0,0,0,0,0,0,0,0,0,0,0,0,0,0,0,0,0,0,0,0,0,0,0],"id":11,"left_children":[1,3,5,7,9,11,13,15,17,19,21,23,25,27,29,-1,-1,-1,-1,-1,-1,31,33,-1,-1,35,-1,37,-1,-1,-1,-1,-1,-1,-1,-1,-1,-1,-1],"loss_changes":[5.30905E4,1.5614E4,8.62925E3,2.69975E3,2.7095E3,2.17675E3,1.79675E3,8.885E2,5.40375E2,3.7425E2,1.9814062E2,6.08375E2,1.2740625E2,1.439125E3,5.9507812E1,0E0,0E0,0E0,0E0,0E0,0E0,6.630469E1,8.638281E1,0E0,0E0,7.2046875E1,0E0,6.971875E2,0E0,0E0,0E0,0E0,0E0,0E0,0E0,0E0,0E0,0E0,0E0],"parents":[2147483647,0,0,1,1,2,2,3,3,4,4,5,5,6,6,7,7,8,8,9,9,10,10,11,11,12,12,13,13,14,14,21,21,22,22,25,25,27,27],"right_children":[2,4,6,8,10,12,14,16,18,20,22,24,26,28,30,-1,-1,-1,-1,-1,-1,32,34,-1,-1,36,-1,38,-1,-1,-1,-1,-1,-1,-1,-1,-1,-1,-1],"split_conditions":[5.97E2,2.7572695E1,7.74E2,2.84E2,7.164077E1,4.968411E1,4.6943764E1,1.9053644E1,4.9249046E1,3.55E2,3.179553E1,4.8282055E1,9.509686E1,9.45E2,5.3667603E1,2.0097718E0,1.8248026E0,1.816667E0,1.3632329E0,1.7275349E0,1.6331692E0,2.6777887E1,3.340271E1,1.6404003E0,1.2974557E0,4.959922E1,6.584789E-1,6.624242E1,1.2928301E0,1.14036E0,7.457706E-1,1.4456025E0,1.8464273E0,7.1182895E-1,1.3594462E0,1.4348488E0,6.8495744E-1,1.4558762E0,1.2410663E0],"split_indices":[0,4,0,0,4,4,1,4,1,0,2,1,4,0,1,0,0,0,0,0,0,2,2,0,0,1,0,4,0,0,0,0,0,0,0,0,0,0,0],"split_type":[0,0,0,0,0,0,0,0,0,0,0,0,0,0,0,0,0,0,0,0,0,0,0,0,0,0,0,0,0,0,0,0,0,0,0,0,0,0,0],"sum_hessian":[6.371E3,3.754E3,2.617E3,1.81E3,1.944E3,1.108E3,1.509E3,8.58E2,9.52E2,1.76E3,1.84E2,8.72E2,2.36E2,1.437E3,7.2E1,6.1E2,2.48E2,9.3E2,2.2E1,1.042E3,7.18E2,7.8E1,1.06E2,8.36E2,3.6E1,2.33E2,3E0,1.1E3,3.37E2,6.3E1,9E0,5.6E1,2.2E1,4E0,1.02E2,2.3E2,3E0,1.011E3,8.9E1],"tree_param":{"num_deleted":"0","num_feature":"5","num_nodes":"39","size_leaf_vector":"1"}},{"base_weights":[3.1340706E1,3.6715908E1,2.2322739E1,4.028859E1,3.0501245E1,2.6018442E1,1.8654423E1,4.4317356E1,3.5048298E1,3.355941E1,2.8104801E1,2.746476E1,1.19011E0,1.0492424E0,1.7174822E1,4.7498833E1,4.0259953E1,1.8951828E0,3.2574562E1,1.6921524E0,1.2922652E0,2.9658792E1,2.6509794E1,1.4309913E0,1.3114876E0,8.959312E-1,7.665081E-1,2.525152E0,2.2248008E0,2.04147E0,1.5355883E0,1.7082373E0,1.5566162E0,1.4945506E0,1.1014335E0,1.3435959E0,1.0350374E0],"categories":[],"categories_nodes":[],"categories_segments":[],"categories_sizes":[],"default_left":[0,0,0,0,0,0,0,0,0,0,0,0,0,0,0,0,0,0,0,0,0,0,0,0,0,0,0,0,0,0,0,0,0,0,0,0,0],"id":12,"left_children":[1,3,5,7,9,11,13,15,17,19,21,23,-1,-1,25,27,29,-1,31,-1,-1,33,35,-1,-1,-1,-1,-1,-1,-1,-1,-1,-1,-1,-1,-1,-1],"loss_changes":[3.10622E5,8.8116E4,3.2078625E4,5.232475E4,9.852E3,3.1735E3,3.8083438E3,1.6663E4,6.633875E3,5.3E2,1.276E3,2.7075E2,0E0,0E0,7.474844E2,4.97875E3,2.2204375E3,0E0,3.21625E2,0E0,0E0,7.33125E1,3.2721875E2,0E0,0E0,0E0,0E0,0E0,0E0,0E0,0E0,0E0,0E0,0E0,0E0,0E0,0E0],"parents":[2147483647,0,0,1,1,2,2,3,3,4,4,5,5,6,6,7,7,8,8,9,9,10,10,11,11,14,14,15,15,16,16,18,18,21,21,22,22],"right_children":[2,4,6,8,10,12,14,16,18,20,22,24,-1,-1,26,28,30,-1,32,-1,-1,34,36,-1,-1,-1,-1,-1,-1,-1,-1,-1,-1,-1,-1,-1,-1],"split_conditions":[6.2E1,6.47E2,8.2E1,3.5E1,8.04E2,7.4E1,8.9E1,3.67E2,4.8E1,4.6943764E1,9.03E2,6.8E1,1.19011E0,1.0492424E0,9.7E1,1.7E1,4.714034E1,1.8951828E0,5.5E1,1.6921524E0,1.2922652E0,4.7490925E1,4.6133938E1,1.4309913E0,1.3114876E0,8.959312E-1,7.665081E-1,2.525152E0,2.2248008E0,2.04147E0,1.5355883E0,1.7082373E0,1.5566162E0,1.4945506E0,1.1014335E0,1.3435959E0,1.0350374E0],"split_indices":[3,0,3,3,0,3,3,0,3,1,0,3,0,0,3,3,1,0,3,0,0,1,1,0,0,0,0,0,0,0,0,0,0,0,0,0,0],"split_type":[0,0,0,0,0,0,0,0,0,0,0,0,0,0,0,0,0,0,0,0,0,0,0,0,0,0,0,0,0,0,0,0,0,0,0,0,0],"sum_hessian":[6.424E3,4.023E3,2.401E3,2.551E3,1.472E3,1.193E3,1.208E3,1.438E3,1.113E3,6.41E2,8.31E2,7.15E2,4.78E2,4.64E2,7.44E2,8E2,6.38E2,5.1E2,6.03E2,6.15E2,2.6E1,4.12E2,4.19E2,3.58E2,3.57E2,5.24E2,2.2E2,3.92E2,4.08E2,5.99E2,3.9E1,2.76E2,3.27E2,3.97E2,1.5E1,3.91E2,2.8E1],"tree_param":{"num_deleted":"0","num_feature":"5","num_nodes":"37","size_leaf_vector":"1"}},{"base_weights":[2.9774687E1,3.4810837E1,2.1383379E1,3.8425816E1,2.9178404E1,2.5304852E1,1.819714E1,4.1889217E1,3.253462E1,3.2041367E1,2.6693813E1,2.6602997E1,2.171156E1,1.9848774E1,1.4641791E1,4.4208813E1,3.8450493E1,3.510799E1,3.0307615E1,3.22129E1,8.997237E-1,2.7028648E1,2.013312E1,2.7961544E1,2.4661003E1,2.2424208E1,9.444375E-1,2.188515E1,1.8083027E1,1.6667511E1,1.294029E1,2.3425047E0,2.013328E0,1.9324528E0,1.1196938E0,1.8910006E0,1.6695127E0,1.6035414E0,1.3650932E0,1.631327E0,1.4406487E0,1.427106E0,1.2802565E0,1.0402305E0,5.300135E-1,1.469314E0,1.3251351E0,1.3253683E0,1.1686282E0,1.1601784E0,9.713875E-1,1.1847728E0,1.0208948E0,9.9440855E-1,8.30832E-1,8.580518E-1,6.2591803E-1,6.812727E-1,5.301313E-1],"categories":[],"categories_nodes":[],"categories_segments":[],"categories_sizes":[],"default_left":[0,0,0,0,0,0,0,0,0,0,0,0,0,0,0,0,0,0,0,0,0,0,0,0,0,0,0,0,0,0,0,0,0,0,0,0,0,0,0,0,0,0,0,0,0,0,0,0,0,0,0,0,0,0,0,0,0,0,0],"id":13,"left_children":[1,3,5,7,9,11,13,15,17,19,21,23,25,27,29,31,33,35,37,39,-1,41,43,45,47,49,-1,51,53,55,57,-1,-1,-1,-1,-1,-1,-1,-1,-1,-1,-1,-1,-1,-1,-1,-1,-1,-1,-1,-1,-1,-1,-1,-1,-1,-1,-1,-1],"loss_changes":[2.70057E5,8.03845E4,2.9601875E4,4.831975E4,1.03055E4,4.4415E3,7.5251875E3,1.0504E4,4.1281875E3,1.164875E3,1.31425E3,1.384125E3,1.6182812E2,2.8619688E3,1.2526406E3,7.55775E3,1.124E3,6.658125E2,1.7371875E3,6.40625E1,0E0,9.970625E2,6.7521484E1,1.66875E2,1.7025E2,7.932031E1,0E0,6.211875E2,9.6921875E2,1.7628125E2,2.3353125E2,0E0,0E0,0E0,0E0,0E0,0E0,0E0,0E0,0E0,0E0,0E0,0E0,0E0,0E0,0E0,0E0,0E0,0E0,0E0,0E0,0E0,0E0,0E0,0E0,0E0,0E0,0E0,0E0],"parents":[2147483647,0,0,1,1,2,2,3,3,4,4,5,5,6,6,7,7,8,8,9,9,10,10,11,11,12,12,13,13,14,14,15,15,16,16,17,17,18,18,19,19,21,21,22,22,23,23,24,24,25,25,27,27,28,28,29,29,30,30],"right_children":[2,4,6,8,10,12,14,16,18,20,22,24,26,28,30,32,34,36,38,40,-1,42,44,46,48,50,-1,52,54,56,58,-1,-1,-1,-1,-1,-1,-1,-1,-1,-1,-1,-1,-1,-1,-1,-1,-1,-1,-1,-1,-1,-1,-1,-1,-1,-1,-1,-1],"split_conditions":[6.2E1,6.22E2,8E1,3.9E1,8.04E2,4.2874004E1,4.1092278E1,3.75E2,2.645233E1,5.2345688E1,4.6719017E1,7.2E1,7.5E1,8.9E1,8.9E1,2.3E1,5.2345688E1,4.8E1,5.4E1,5.5E1,8.997237E-1,8.95E2,5.3667603E1,1.9429358E1,1.5507144E1,7.017391E1,9.444375E-1,1.730978E1,1.5867381E1,7.454922E1,6.48025E1,2.3425047E0,2.013328E0,1.9324528E0,1.1196938E0,1.8910006E0,1.6695127E0,1.6035414E0,1.3650932E0,1.631327E0,1.4406487E0,1.427106E0,1.2802565E0,1.0402305E0,5.300135E-1,1.469314E0,1.3251351E0,1.3253683E0,1.1686282E0,1.1601784E0,9.713875E-1,1.1847728E0,1.0208948E0,9.9440855E-1,8.30832E-1,8.580518E-1,6.2591803E-1,6.812727E-1,5.301313E-1],"split_indices":[3,0,3,3,0,4,4,0,4,1,1,3,3,3,3,3,1,3,3,3,0,0,1,4,4,4,0,4,4,4,4,0,0,0,0,0,0,0,0,0,0,0,0,0,0,0,0,0,0,0,0,0,0,0,0,0,0,0,0],"split_type":[0,0,0,0,0,0,0,0,0,0,0,0,0,0,0,0,0,0,0,0,0,0,0,0,0,0,0,0,0,0,0,0,0,0,0,0,0,0,0,0,0,0,0,0,0,0,0,0,0,0,0,0,0,0,0,0,0,0,0],"sum_hessian":[6.407E3,4.002E3,2.405E3,2.434E3,1.568E3,1.075E3,1.33E3,1.529E3,9.05E2,7.23E2,8.45E2,7.85E2,2.9E2,9.05E2,4.25E2,9.06E2,6.23E2,4.13E2,4.92E2,7.13E2,1E1,8.01E2,4.4E1,4.54E2,3.31E2,2.26E2,6.4E1,4.15E2,4.9E2,1.9E2,2.35E2,5.36E2,3.7E2,6.14E2,9E0,1.52E2,2.61E2,3.04E2,1.88E2,6.28E2,8.5E1,3.79E2,4.22E2,4E1,4E0,2.2E2,2.34E2,1.28E2,2.03E2,1.74E2,5.2E1,1.79E2,2.36E2,2.14E2,2.76E2,1.67E2,2.3E1,1.78E2,5.7E1],"tree_param":{"num_deleted":"0","num_feature":"5","num_nodes":"59","size_leaf_vector":"1"}},{"base_weights":[2.8329302E1,3.28468E1,1.9661522E1,3.4925854E1,2.9015572E1,2.2614145E1,1.6375225E1,3.5397587E1,3.0167583E1,2.9898764E1,2.5073212E1,2.3744247E1,1.871822E1,1.8146996E1,1.3531502E1,1.8452103E0,3.3682613E1,1.5598521E0,1.087788E0,3.1181475E1,2.8307394E1,2.5703257E1,1.02604E0,2.4919657E1,2.1567913E1,2.009358E1,8.4387076E-1,1.9141655E1,1.5954686E1,1.4703839E1,1.1510039E1,1.7286475E0,1.5841669E0,1.6091642E0,1.486816E0,1.4888155E0,1.3397774E0,1.3316716E0,1.1438092E0,1.332817E0,1.1790768E0,1.1830829E0,1.0094889E0,1.0333341E0,7.9489654E-1,1.0465065E0,8.9701176E-1,8.9376193E-1,7.327427E-1,7.8952104E-1,6.5057725E-1,6.090093E-1,4.2290813E-1],"categories":[],"categories_nodes":[],"categories_segments":[],"categories_sizes":[],"default_left":[0,0,0,0,0,0,0,0,0,0,0,0,0,0,0,0,0,0,0,0,0,0,0,0,0,0,0,0,0,0,0,0,0,0,0,0,0,0,0,0,0,0,0,0,0,0,0,0,0,0,0,0,0],"id":14,"left_children":[1,3,5,7,9,11,13,15,17,19,21,23,25,27,29,-1,31,-1,-1,33,35,37,-1,39,41,43,-1,45,47,49,51,-1,-1,-1,-1,-1,-1,-1,-1,-1,-1,-1,-1,-1,-1,-1,-1,-1,-1,-1,-1,-1,-1],"loss_changes":[2.517585E5,3.27275E4,2.1083375E4,5.0845E3,4.459125E3,4.671625E3,5.0447812E3,5.18575E3,1.5208281E3,1.601625E3,2.7564062E2,1.7571875E3,3.343203E2,1.0989219E3,7.9528125E2,0E0,9.96125E2,0E0,0E0,4.3125E0,4.324375E2,2.7109375E1,0E0,7.099375E2,4.5139062E2,2.4910156E1,0E0,5.656406E2,2.5478906E2,2.6159766E2,2.1193945E2,0E0,0E0,0E0,0E0,0E0,0E0,0E0,0E0,0E0,0E0,0E0,0E0,0E0,0E0,0E0,0E0,0E0,0E0,0E0,0E0,0E0,0E0],"parents":[2147483647,0,0,1,1,2,2,3,3,4,4,5,5,6,6,7,7,8,8,9,9,10,10,11,11,12,12,13,13,14,14,16,16,19,19,20,20,21,21,23,23,24,24,25,25,27,27,28,28,29,29,30,30],"right_children":[2,4,6,8,10,12,14,16,18,20,22,24,26,28,30,-1,32,-1,-1,34,36,38,-1,40,42,44,-1,46,48,50,52,-1,-1,-1,-1,-1,-1,-1,-1,-1,-1,-1,-1,-1,-1,-1,-1,-1,-1,-1,-1,-1,-1],"split_conditions":[6.5E1,4.2E1,8.4E1,4.4263916E1,5.2507126E1,4.6534626E1,3.835221E1,2.2E1,5.2345688E1,5.5E1,7.968118E1,7.8E1,7.5E1,9.5E1,9.4E1,1.8452103E0,4.2400017E1,1.5598521E0,1.087788E0,2.8230673E1,2.2891544E1,5.8E1,1.02604E0,1.887558E1,1.5238976E1,7.968118E1,8.4387076E-1,1.382547E1,1.1033782E1,5.3746773E1,6.5399506E1,1.7286475E0,1.5841669E0,1.6091642E0,1.486816E0,1.4888155E0,1.3397774E0,1.3316716E0,1.1438092E0,1.332817E0,1.1790768E0,1.1830829E0,1.0094889E0,1.0333341E0,7.9489654E-1,1.0465065E0,8.9701176E-1,8.9376193E-1,7.327427E-1,7.8952104E-1,6.5057725E-1,6.090093E-1,4.2290813E-1],"split_indices":[3,3,3,1,4,4,4,3,1,3,4,3,3,3,3,0,4,0,0,4,4,3,0,4,4,4,0,4,4,4,4,0,0,0,0,0,0,0,0,0,0,0,0,0,0,0,0,0,0,0,0,0,0],"split_type":[0,0,0,0,0,0,0,0,0,0,0,0,0,0,0,0,0,0,0,0,0,0,0,0,0,0,0,0,0,0,0,0,0,0,0,0,0,0,0,0,0,0,0,0,0,0,0,0,0,0,0,0,0],"sum_hessian":[6.445E3,4.235E3,2.21E3,2.74E3,1.495E3,1.161E3,1.049E3,2.487E3,2.53E2,1.216E3,2.79E2,8.96E2,2.65E2,6.43E2,4.06E2,1.313E3,1.174E3,2.23E2,3E1,6.63E2,5.53E2,2.41E2,3.8E1,5.75E2,3.21E2,1.46E2,1.19E2,4.37E2,2.06E2,2.53E2,1.53E2,8.01E2,3.73E2,3.79E2,2.84E2,2.71E2,2.82E2,1.75E2,6.6E1,2.42E2,3.33E2,1.21E2,2E2,1.25E2,2.1E1,1.69E2,2.68E2,7.8E1,1.28E2,1.49E2,1.04E2,1.23E2,3E1],"tree_param":{"num_deleted":"0","num_feature":"5","num_nodes":"53","size_leaf_vector":"1"}},{"base_weights":[2.6824783E1,3.1070276E1,1.876005E1,3.323838E1,2.7835127E1,2.1365099E1,1.5421705E1,3.3710827E1,2.8515196E1,2.8746136E1,2.4255276E1,2.2620634E1,1.7963541E1,1.709926E1,1.2680675E1,1.7360085E0,3.2278378E1,1.4663283E0,1.0763716E0,2.9727179E1,2.6708088E1,2.5785429E1,1.095956E0,2.4272243E1,2.103062E1,1.922781E1,1.56937895E1,1.8395115E1,1.566401E1,1.3748854E1,1.0940338E1,1.6575361E0,1.5092368E0,1.5403347E0,1.4195737E0,1.4289165E0,1.2801154E0,1.295762E0,6.4080936E-1,1.2869309E0,1.1481328E0,1.1532387E0,9.904589E-1,9.960801E-1,8.145525E-1,8.0257314E-1,5.247633E-1,9.736948E-1,8.318648E-1,8.221656E-1,6.8121165E-1,7.17916E-1,5.7166815E-1,5.8194685E-1,3.9255622E-1],"categories":[],"categories_nodes":[],"categories_segments":[],"categories_sizes":[],"default_left":[0,0,0,0,0,0,0,0,0,0,0,0,0,0,0,0,0,0,0,0,0,0,0,0,0,0,0,0,0,0,0,0,0,0,0,0,0,0,0,0,0,0,0,0,0,0,0,0,0,0,0,0,0,0,0],"id":15,"left_children":[1,3,5,7,9,11,13,15,17,19,21,23,25,27,29,-1,31,-1,-1,33,35,37,-1,39,41,43,45,47,49,51,53,-1,-1,-1,-1,-1,-1,-1,-1,-1,-1,-1,-1,-1,-1,-1,-1,-1,-1,-1,-1,-1,-1,-1,-1],"loss_changes":[2.173805E5,2.831675E4,1.87855E4,4.5975E3,4.7785E3,4.85525E3,4.2296562E3,2.14525E3,6.896875E2,1.87125E3,6.752031E2,1.8425312E3,6.6528906E2,8.2221875E2,5.392617E2,0E0,7.306875E2,0E0,0E0,4.10125E2,1.845E2,1.13125E1,0E0,2.4046875E2,6.9596875E2,1.0740625E2,6.581641E1,2.600703E2,2.3696094E2,1.5476953E2,2.2370898E2,0E0,0E0,0E0,0E0,0E0,0E0,0E0,0E0,0E0,0E0,0E0,0E0,0E0,0E0,0E0,0E0,0E0,0E0,0E0,0E0,0E0,0E0,0E0,0E0],"parents":[2147483647,0,0,1,1,2,2,3,3,4,4,5,5,6,6,7,7,8,8,9,9,10,10,11,11,12,12,13,13,14,14,16,16,19,19,20,20,21,21,23,23,24,24,25,25,26,26,27,27,28,28,29,29,30,30],"right_children":[2,4,6,8,10,12,14,16,18,20,22,24,26,28,30,-1,32,-1,-1,34,36,38,-1,40,42,44,46,48,50,52,54,-1,-1,-1,-1,-1,-1,-1,-1,-1,-1,-1,-1,-1,-1,-1,-1,-1,-1,-1,-1,-1,-1,-1,-1],"split_conditions":[6.5E1,3.9E1,8.5E1,4.4263916E1,5.053318E1,4.2400017E1,3.8095074E1,2.2E1,5.2345688E1,5.7E1,5.5E1,7.5E1,7.8E1,1.8591148E1,9.4E1,1.7360085E0,4.3910896E1,1.4663283E0,1.0763716E0,2.645233E1,1.5238976E1,4.9249046E1,1.095956E0,1.887558E1,1.4666144E1,7.3630806E1,7.454922E1,9.4E1,9.5E1,6.1936268E1,6.5399506E1,1.6575361E0,1.5092368E0,1.5403347E0,1.4195737E0,1.4289165E0,1.2801154E0,1.295762E0,6.4080936E-1,1.2869309E0,1.1481328E0,1.1532387E0,9.904589E-1,9.960801E-1,8.145525E-1,8.0257314E-1,5.247633E-1,9.736948E-1,8.318648E-1,8.221656E-1,6.8121165E-1,7.17916E-1,5.7166815E-1,5.8194685E-1,3.9255622E-1],"split_indices":[3,3,3,1,4,4,4,3,1,3,3,3,3,4,3,0,4,0,0,4,4,1,0,4,4,4,4,3,3,4,4,0,0,0,0,0,0,0,0,0,0,0,0,0,0,0,0,0,0,0,0,0,0,0,0],"split_type":[0,0,0,0,0,0,0,0,0,0,0,0,0,0,0,0,0,0,0,0,0,0,0,0,0,0,0,0,0,0,0,0,0,0,0,0,0,0,0,0,0,0,0,0,0,0,0,0,0,0,0,0,0,0,0],"sum_hessian":[6.365E3,4.168E3,2.197E3,2.49E3,1.678E3,1.231E3,9.66E2,2.258E3,2.32E2,1.332E3,3.46E2,8.95E2,3.36E2,5.96E2,3.7E2,1.311E3,9.47E2,2.05E2,2.7E1,8.9E2,4.42E2,2.03E2,1.43E2,4.32E2,4.63E2,2.11E2,1.25E2,3.07E2,2.89E2,2.25E2,1.45E2,6.58E2,2.89E2,4.8E2,4.1E2,1.55E2,2.87E2,2E2,3E0,1.95E2,2.37E2,1.67E2,2.96E2,1.66E2,4.5E1,1.15E2,1E1,1.84E2,1.23E2,2.04E2,8.5E1,1.74E2,5.1E1,1.16E2,2.9E1],"tree_param":{"num_deleted":"0","num_feature":"5","num_nodes":"55","size_leaf_vector":"1"}},{"base_weights":[2.5551083E1,2.9719028E1,1.796658E1,3.2428303E1,2.3219952E1,2.1081585E1,1.53393545E1,3.5040512E1,2.7129602E1,2.5112553E1,2.124791E1,2.2141474E1,1.743926E1,1.7556883E1,1.3319981E1,3.6913307E1,2.993844E1,2.8926022E1,2.4445936E1,2.5368044E1,9.034128E-1,2.1618862E1,1.6816265E1,2.3219206E1,2.0558815E1,1.8203356E1,7.7679574E-1,1.9055815E1,1.5878755E1,1.4839881E1,1.1615523E1,1.9391793E0,1.6625366E0,1.5019078E0,4.695575E-1,1.505229E0,1.3334632E0,1.294408E0,1.1114815E0,1.3314016E0,1.2236809E0,1.1254318E0,1.0214514E0,8.610013E-1,3.8835368E-1,1.2519889E0,1.1156577E0,1.0921569E0,9.5120144E-1,9.231758E-1,6.175257E-1,1.0266659E0,9.0306205E-1,8.793461E-1,7.5066316E-1,8.019353E-1,6.4954716E-1,6.3697773E-1,4.920524E-1],"categories":[],"categories_nodes":[],"categories_segments":[],"categories_sizes":[],"default_left":[0,0,0,0,0,0,0,0,0,0,0,0,0,0,0,0,0,0,0,0,0,0,0,0,0,0,0,0,0,0,0,0,0,0,0,0,0,0,0,0,0,0,0,0,0,0,0,0,0,0,0,0,0,0,0,0,0,0,0],"id":16,"left_children":[1,3,5,7,9,11,13,15,17,19,21,23,25,27,29,31,33,35,37,39,-1,41,43,45,47,49,-1,51,53,55,57,-1,-1,-1,-1,-1,-1,-1,-1,-1,-1,-1,-1,-1,-1,-1,-1,-1,-1,-1,-1,-1,-1,-1,-1,-1,-1,-1,-1],"loss_changes":[2.0140225E5,7.180875E4,1.82375E4,3.927175E4,4.004875E3,3.6094688E3,5.2920312E3,1.746075E4,3.9403125E3,6.4846875E2,6.2609375E2,8.8371875E2,6.3320312E1,1.1689375E3,1.5115312E3,8.41675E3,7.9765625E2,7.1846875E2,6.8071875E2,1.4375E1,0E0,1.245625E2,5.2589844E1,2.11625E2,2.3889062E2,2.16875E1,0E0,7.586719E1,1.52875E2,5.4527344E2,4.949375E2,0E0,0E0,0E0,0E0,0E0,0E0,0E0,0E0,0E0,0E0,0E0,0E0,0E0,0E0,0E0,0E0,0E0,0E0,0E0,0E0,0E0,0E0,0E0,0E0,0E0,0E0,0E0,0E0],"parents":[2147483647,0,0,1,1,2,2,3,3,4,4,5,5,6,6,7,7,8,8,9,9,10,10,11,11,12,12,13,13,14,14,15,15,16,16,17,17,18,18,19,19,21,21,22,22,23,23,24,24,25,25,27,27,28,28,29,29,30,30],"right_children":[2,4,6,8,10,12,14,16,18,20,22,24,26,28,30,32,34,36,38,40,-1,42,44,46,48,50,-1,52,54,56,58,-1,-1,-1,-1,-1,-1,-1,-1,-1,-1,-1,-1,-1,-1,-1,-1,-1,-1,-1,-1,-1,-1,-1,-1,-1,-1,-1,-1],"split_conditions":[6.4E1,7.15E2,8.1E1,4.3E1,8.66E2,4.7820045E1,2.8706236E1,5.28E2,3.4871674E1,4.787148E1,4.5282608E1,7.4E1,7.5E1,9.1E1,9.1E1,2.8E1,5.5256607E1,5.7E1,5.6E1,7.78E2,9.034128E-1,9.38E2,5.2345688E1,1.2589271E1,2.3618916E1,9.050639E1,7.7679574E-1,7.610087E0,4.744873E0,4.939243E1,5.1569862E1,1.9391793E0,1.6625366E0,1.5019078E0,4.695575E-1,1.505229E0,1.3334632E0,1.294408E0,1.1114815E0,1.3314016E0,1.2236809E0,1.1254318E0,1.0214514E0,8.610013E-1,3.8835368E-1,1.2519889E0,1.1156577E0,1.0921569E0,9.5120144E-1,9.231758E-1,6.175257E-1,1.0266659E0,9.0306205E-1,8.793461E-1,7.5066316E-1,8.019353E-1,6.4954716E-1,6.3697773E-1,4.920524E-1],"split_indices":[3,0,3,3,0,4,4,0,4,1,1,3,3,3,3,3,1,3,3,0,0,0,1,4,4,4,0,4,4,4,4,0,0,0,0,0,0,0,0,0,0,0,0,0,0,0,0,0,0,0,0,0,0,0,0,0,0,0,0],"split_type":[0,0,0,0,0,0,0,0,0,0,0,0,0,0,0,0,0,0,0,0,0,0,0,0,0,0,0,0,0,0,0,0,0,0,0,0,0,0,0,0,0,0,0,0,0,0,0,0,0,0,0,0,0,0,0,0,0,0,0],"sum_hessian":[6.387E3,4.12E3,2.267E3,2.905E3,1.215E3,1.034E3,1.233E3,1.942E3,9.63E2,6.14E2,6.01E2,7.97E2,2.37E2,5.84E2,6.49E2,1.416E3,5.26E2,5.71E2,3.92E2,5.9E2,2.4E1,5.51E2,5E1,4.66E2,3.31E2,1.63E2,7.4E1,3.03E2,2.81E2,3.39E2,3.1E2,9.31E2,4.85E2,5.23E2,3E0,3.67E2,2.04E2,2.31E2,1.61E2,2.33E2,3.57E2,3.05E2,2.46E2,4.7E1,3E0,1.46E2,3.2E2,1.73E2,1.58E2,1.54E2,9E0,1.14E2,1.89E2,8.8E1,1.93E2,2.01E2,1.38E2,1.86E2,1.24E2],"tree_param":{"num_deleted":"0","num_feature":"5","num_nodes":"59","size_leaf_vector":"1"}},{"base_weights":[2.4232256E1,2.8377766E1,1.7314627E1,3.018037E1,2.5502598E1,2.0273445E1,1.4598766E1,3.0530027E1,2.5127884E1,2.6426348E1,2.279043E1,2.130314E1,1.710935E1,1.703954E1,1.2804642E1,1.6057457E0,2.9729496E1,1.3048166E0,1.0081173E0,1.3975097E0,2.5506245E1,1.222861E0,2.132401E1,2.2774706E1,1.9978163E1,1.864505E1,7.9608965E-1,1.8320154E1,1.51866865E1,1.3854275E1,1.0518172E1,1.5201068E0,1.4050972E0,1.3364112E0,1.2306099E0,1.0905875E0,8.3333445E-1,1.2148395E0,1.094425E0,1.0898271E0,9.476945E-1,9.457464E-1,5.8317107E-1,9.723018E-1,8.6167985E-1,8.1206197E-1,7.0222E-1,7.3962176E-1,5.928845E-1,5.547658E-1,3.5418856E-1],"categories":[],"categories_nodes":[],"categories_segments":[],"categories_sizes":[],"default_left":[0,0,0,0,0,0,0,0,0,0,0,0,0,0,0,0,0,0,0,0,0,0,0,0,0,0,0,0,0,0,0,0,0,0,0,0,0,0,0,0,0,0,0,0,0,0,0,0,0,0,0],"id":17,"left_children":[1,3,5,7,9,11,13,15,17,19,21,23,25,27,29,-1,31,-1,-1,-1,33,-1,35,37,39,41,-1,43,45,47,49,-1,-1,-1,-1,-1,-1,-1,-1,-1,-1,-1,-1,-1,-1,-1,-1,-1,-1,-1,-1],"loss_changes":[1.813785E5,1.9775E4,1.8821062E4,3.52775E3,3.240875E3,3.3366562E3,5.2293438E3,1.924E3,2.576797E2,8.8275E2,4.4882812E2,1.2081875E3,2.2107812E2,9.65125E2,1.5846406E3,0E0,8.10625E2,0E0,0E0,0E0,1.2984375E2,0E0,1.3395312E2,3.6875E0,4.3803125E2,1.7226562E0,0E0,3.7992188E1,3.6910156E1,7.442969E2,3.792793E2,0E0,0E0,0E0,0E0,0E0,0E0,0E0,0E0,0E0,0E0,0E0,0E0,0E0,0E0,0E0,0E0,0E0,0E0,0E0,0E0],"parents":[2147483647,0,0,1,1,2,2,3,3,4,4,5,5,6,6,7,7,8,8,9,9,10,10,11,11,12,12,13,13,14,14,16,16,20,20,22,22,23,23,24,24,25,25,27,27,28,28,29,29,30,30],"right_children":[2,4,6,8,10,12,14,16,18,20,22,24,26,28,30,-1,32,-1,-1,-1,34,-1,36,38,40,42,-1,44,46,48,50,-1,-1,-1,-1,-1,-1,-1,-1,-1,-1,-1,-1,-1,-1,-1,-1,-1,-1,-1,-1],"split_conditions":[6.2E1,3.8E1,8.1E1,4.571415E1,4.6534626E1,4.628446E1,2.5266464E1,1.2E1,5.2345688E1,4.7E1,4.9E1,7.1E1,6.9E1,9.2E1,9.4E1,1.6057457E0,4.3094074E1,1.3048166E0,1.0081173E0,1.3975097E0,1.730978E1,1.222861E0,7.968118E1,1.382547E1,1.4412966E1,9.050639E1,7.9608965E-1,8.421557E0,9.028275E0,5.086493E1,6.5399506E1,1.5201068E0,1.4050972E0,1.3364112E0,1.2306099E0,1.0905875E0,8.3333445E-1,1.2148395E0,1.094425E0,1.0898271E0,9.476945E-1,9.457464E-1,5.8317107E-1,9.723018E-1,8.6167985E-1,8.1206197E-1,7.0222E-1,7.3962176E-1,5.928845E-1,5.547658E-1,3.5418856E-1],"split_indices":[3,3,3,1,4,4,4,3,1,3,3,3,3,3,3,0,4,0,0,0,4,0,4,4,4,4,0,4,4,4,4,0,0,0,0,0,0,0,0,0,0,0,0,0,0,0,0,0,0,0,0],"split_type":[0,0,0,0,0,0,0,0,0,0,0,0,0,0,0,0,0,0,0,0,0,0,0,0,0,0,0,0,0,0,0,0,0,0,0,0,0,0,0,0,0,0,0,0,0,0,0,0,0,0,0],"sum_hessian":[6.341E3,3.963E3,2.378E3,2.43E3,1.533E3,1.135E3,1.243E3,2.268E3,1.62E2,1.137E3,3.96E2,8.52E2,2.83E2,5.23E2,7.2E2,7.48E2,1.52E3,1.32E2,3E1,4.17E2,7.2E2,1.78E2,2.18E2,3.96E2,4.56E2,1.17E2,1.66E2,3.04E2,2.19E2,4.9E2,2.3E2,1.063E3,4.57E2,2.92E2,4.28E2,1.94E2,2.4E1,1.36E2,2.6E2,1.57E2,2.99E2,1.11E2,6E0,1.41E2,1.63E2,1.07E2,1.12E2,3.29E2,1.61E2,1.95E2,3.5E1],"tree_param":{"num_deleted":"0","num_feature":"5","num_nodes":"51","size_leaf_vector":"1"}},{"base_weights":[2.3122137E1,2.6692373E1,1.5947518E1,2.833649E1,2.3338982E1,1.8213604E1,1.3284554E1,2.8701433E1,2.4583076E1,2.415866E1,2.0050413E1,2.017555E1,1.6467333E1,1.5452385E1,1.158631E1,2.9546862E1,2.663513E1,1.2619689E0,9.219864E-1,1.2645868E0,2.3054066E1,1.032438E0,8.349164E-1,1.0686983E0,9.383623E-1,1.724799E1,1.3904815E1,1.6287987E1,6.8185264E-1,1.2423643E1,9.585444E0,1.5444559E0,1.4447188E0,1.3906301E0,1.2679968E0,1.2095584E0,1.0929044E0,9.190227E-1,7.859224E-1,7.412425E-1,5.862322E-1,8.7197524E-1,7.654966E-1,6.55714E-1,5.237222E-1,5.172337E-1,3.5600764E-1],"categories":[],"categories_nodes":[],"categories_segments":[],"categories_sizes":[],"default_left":[0,0,0,0,0,0,0,0,0,0,0,0,0,0,0,0,0,0,0,0,0,0,0,0,0,0,0,0,0,0,0,0,0,0,0,0,0,0,0,0,0,0,0,0,0,0,0],"id":18,"left_children":[1,3,5,7,9,11,13,15,17,19,21,23,25,27,29,31,33,-1,-1,-1,35,-1,-1,-1,-1,37,39,41,-1,43,45,-1,-1,-1,-1,-1,-1,-1,-1,-1,-1,-1,-1,-1,-1,-1,-1],"loss_changes":[1.6443275E5,2.302425E4,1.26779375E4,3.2365E3,3.340625E3,3.6214688E3,3.4582969E3,3.78475E3,5.909531E2,8.325E2,2.3485156E2,5.085625E2,9.924375E2,4.3166406E2,8.1578125E2,7.26E2,4.50875E2,0E0,0E0,0E0,2.654375E2,0E0,0E0,0E0,0E0,5.2175E2,1.2505664E2,5.9617188E1,0E0,3.8765234E2,2.4266602E2,0E0,0E0,0E0,0E0,0E0,0E0,0E0,0E0,0E0,0E0,0E0,0E0,0E0,0E0,0E0,0E0],"parents":[2147483647,0,0,1,1,2,2,3,3,4,4,5,5,6,6,7,7,8,8,9,9,10,10,11,11,12,12,13,13,14,14,15,15,16,16,20,20,25,25,26,26,27,27,29,29,30,30],"right_children":[2,4,6,8,10,12,14,16,18,20,22,24,26,28,30,32,34,-1,-1,-1,36,-1,-1,-1,-1,38,40,42,-1,44,46,-1,-1,-1,-1,-1,-1,-1,-1,-1,-1,-1,-1,-1,-1,-1,-1],"split_conditions":[6.6E1,4.4E1,8.5E1,4.4263916E1,5.053318E1,2.6847528E1,2.5266464E1,3E1,5.2345688E1,2.3190062E1,7.6492805E1,7.7E1,5.9019974E1,9.5E1,5.2775692E1,9E0,3.1519962E1,1.2619689E0,9.219864E-1,1.2645868E0,5.5E1,1.032438E0,8.349164E-1,1.0686983E0,9.383623E-1,7.7E1,7.9E1,7.610087E0,6.8185264E-1,9.6E1,9.6E1,1.5444559E0,1.4447188E0,1.3906301E0,1.2679968E0,1.2095584E0,1.0929044E0,9.190227E-1,7.859224E-1,7.412425E-1,5.862322E-1,8.7197524E-1,7.654966E-1,6.55714E-1,5.237222E-1,5.172337E-1,3.5600764E-1],"split_indices":[3,3,3,1,4,4,4,3,1,4,4,3,4,3,4,3,4,0,0,0,3,0,0,0,0,3,3,4,0,3,3,0,0,0,0,0,0,0,0,0,0,0,0,0,0,0,0],"split_type":[0,0,0,0,0,0,0,0,0,0,0,0,0,0,0,0,0,0,0,0,0,0,0,0,0,0,0,0,0,0,0,0,0,0,0,0,0,0,0,0,0,0,0,0,0,0,0],"sum_hessian":[6.435E3,4.295E3,2.14E3,2.877E3,1.418E3,1.153E3,9.87E2,2.616E3,2.61E2,1.13E3,2.88E2,5.38E2,6.15E2,4.3E2,5.57E2,1.847E3,7.69E2,2.33E2,2.8E1,5.47E2,5.83E2,2.4E2,4.8E1,2.83E2,2.55E2,4.67E2,1.48E2,2.89E2,1.41E2,3.89E2,1.68E2,5.89E2,1.258E3,3.89E2,3.8E2,2.89E2,2.94E2,2.62E2,2.05E2,1E2,4.8E1,1.25E2,1.64E2,2.83E2,1.06E2,1.26E2,4.2E1],"tree_param":{"num_deleted":"0","num_feature":"5","num_nodes":"47","size_leaf_vector":"1"}},{"base_weights":[2.1974127E1,2.3608444E1,1.8417725E1,2.515066E1,2.1827158E1,1.9576897E1,1.6824862E1,2.589098E1,2.2452158E1,2.2458052E1,1.927343E1,2.0452023E1,1.8772276E1,1.7020689E1,1.1431191E1,2.6614342E1,2.471751E1,1.13469E0,8.740994E-1,1.1947488E0,2.1771755E1,1.033525E0,1.8044533E1,2.0553358E1,3.9699787E-1,1.8901743E1,6.9845444E-1,8.7780565E-1,1.5646904E1,6.145341E-1,2.7575177E-1,1.3902117E0,1.258588E0,1.3079135E0,1.1967803E0,1.095188E0,9.4468576E-1,9.0842324E-1,3.312089E-1,1.0430399E0,8.90113E-1,9.463178E-1,3.8598737E-1,7.845485E-1,1.2788005E-1],"categories":[],"categories_nodes":[],"categories_segments":[],"categories_sizes":[],"default_left":[0,0,0,0,0,0,0,0,0,0,0,0,0,0,0,0,0,0,0,0,0,0,0,0,0,0,0,0,0,0,0,0,0,0,0,0,0,0,0,0,0,0,0,0,0],"id":19,"left_children":[1,3,5,7,9,11,13,15,17,19,21,23,25,27,29,31,33,-1,-1,-1,35,-1,37,39,-1,41,-1,-1,43,-1,-1,-1,-1,-1,-1,-1,-1,-1,-1,-1,-1,-1,-1,-1,-1],"loss_changes":[3.6642E4,1.144775E4,3.3873125E3,4.0815E3,2.844125E3,4.3221875E2,7.085156E2,8.91375E2,2.1578125E2,1.0823125E3,3.3092188E2,5.265625E2,1.19E2,3.3067188E2,1.0001758E2,1.2156875E3,1.736875E2,0E0,0E0,0E0,8.25E0,0E0,1.9951562E2,8.4515625E1,0E0,1.8203125E1,0E0,0E0,9.8296875E1,0E0,0E0,0E0,0E0,0E0,0E0,0E0,0E0,0E0,0E0,0E0,0E0,0E0,0E0,0E0,0E0],"parents":[2147483647,0,0,1,1,2,2,3,3,4,4,5,5,6,6,7,7,8,8,9,9,10,10,11,11,12,12,13,13,14,14,15,15,16,16,20,20,22,22,23,23,25,25,28,28],"right_children":[2,4,6,8,10,12,14,16,18,20,22,24,26,28,30,32,34,-1,-1,-1,36,-1,38,40,-1,42,-1,-1,44,-1,-1,-1,-1,-1,-1,-1,-1,-1,-1,-1,-1,-1,-1,-1,-1],"split_conditions":[6.86E2,3.1748924E1,8.74E2,5.4E2,6.3141953E1,7.78E2,4.8282055E1,1.9053644E1,4.8282055E1,2.27E2,3.2504364E1,8.477804E1,4.787148E1,9.61E2,5.3667603E1,2.77E2,3.0148348E1,1.13469E0,8.740994E-1,1.1947488E0,6.8248695E1,1.033525E0,4.714034E1,4.408811E1,3.9699787E-1,9.509686E1,6.9845444E-1,8.7780565E-1,9.050639E1,6.145341E-1,2.7575177E-1,1.3902117E0,1.258588E0,1.3079135E0,1.1967803E0,1.095188E0,9.4468576E-1,9.0842324E-1,3.312089E-1,1.0430399E0,8.90113E-1,9.463178E-1,3.8598737E-1,7.845485E-1,1.2788005E-1],"split_indices":[0,4,0,0,4,0,1,4,1,0,2,4,1,0,1,0,1,0,0,0,2,0,1,1,0,4,0,0,4,0,0,0,0,0,0,0,0,0,0,0,0,0,0,0,0],"split_type":[0,0,0,0,0,0,0,0,0,0,0,0,0,0,0,0,0,0,0,0,0,0,0,0,0,0,0,0,0,0,0,0,0,0,0,0,0,0,0,0,0,0,0,0,0],"sum_hessian":[6.378E3,4.366E3,2.012E3,2.333E3,2.033E3,1.158E3,8.54E2,1.824E3,5.09E2,1.624E3,4.09E2,5.43E2,6.15E2,8.22E2,3.2E1,1.115E3,7.09E2,4.82E2,2.7E1,5.14E2,1.11E3,1.84E2,2.25E2,5.38E2,5E0,5.96E2,1.9E1,5.83E2,2.39E2,2.7E1,5E0,6.01E2,5.14E2,2.38E2,4.71E2,1.055E3,5.5E1,2.22E2,3E0,4.78E2,6E1,5.94E2,2E0,2.38E2,1E0],"tree_param":{"num_deleted":"0","num_feature":"5","num_nodes":"45","size_leaf_vector":"1"}},{"base_weights":[2.0845009E1,2.432427E1,1.4196578E1,2.6718987E1,1.8447813E1,1.606204E1,1.1021828E1,2.9243505E1,2.202051E1,2.0143234E1,1.6684914E1,1.7087845E1,1.3424779E1,1.2426559E1,8.84124E0,3.1290201E1,2.5123772E1,2.3316961E1,1.9398031E1,2.0338795E1,6.663952E-1,1.7053614E1,1.3330578E1,1.844801E1,1.566492E1,1.4766035E1,1.1602178E1,7.037829E-1,1.1669149E1,9.430091E0,7.002772E0,1.6663942E0,1.4002336E0,1.3415207E0,1.184271E0,1.2264822E0,1.080297E0,1.0619941E0,8.9298695E-1,1.0723336E0,9.784765E-1,8.994152E-1,8.0168647E-1,6.7822355E-1,2.0266373E-1,9.875537E-1,8.708324E-1,8.6567515E-1,7.345493E-1,7.6218635E-1,6.2489814E-1,6.0126895E-1,4.013414E-1,6.163151E-1,5.0311047E-1,5.150359E-1,4.193308E-1,3.714213E-1,1.7900275E-1],"categories":[],"categories_nodes":[],"categories_segments":[],"categories_sizes":[],"default_left":[0,0,0,0,0,0,0,0,0,0,0,0,0,0,0,0,0,0,0,0,0,0,0,0,0,0,0,0,0,0,0,0,0,0,0,0,0,0,0,0,0,0,0,0,0,0,0,0,0,0,0,0,0,0,0,0,0,0,0],"id":20,"left_children":[1,3,5,7,9,11,13,15,17,19,21,23,25,27,29,31,33,35,37,39,-1,41,43,45,47,49,51,-1,53,55,57,-1,-1,-1,-1,-1,-1,-1,-1,-1,-1,-1,-1,-1,-1,-1,-1,-1,-1,-1,-1,-1,-1,-1,-1,-1,-1,-1,-1],"loss_changes":[1.4681825E5,5.82595E4,1.2781125E4,3.451325E4,3.2864062E3,3.4930625E3,2.3804766E3,1.544525E4,3.0835938E3,5.459375E2,5.147344E2,1.6212812E3,7.820703E2,4.5027344E2,2.8255273E2,7.6495E3,9.45375E2,9.038125E2,6.123281E2,8.653125E1,0E0,2.2348438E2,8.389258E1,3.26625E2,5.3078906E2,4.8921875E1,1.6069922E2,0E0,2.3817969E2,1.3255664E2,9.287109E1,0E0,0E0,0E0,0E0,0E0,0E0,0E0,0E0,0E0,0E0,0E0,0E0,0E0,0E0,0E0,0E0,0E0,0E0,0E0,0E0,0E0,0E0,0E0,0E0,0E0,0E0,0E0,0E0],"parents":[2147483647,0,0,1,1,2,2,3,3,4,4,5,5,6,6,7,7,8,8,9,9,10,10,11,11,12,12,13,13,14,14,15,15,16,16,17,17,18,18,19,19,21,21,22,22,23,23,24,24,25,25,26,26,28,28,29,29,30,30],"right_children":[2,4,6,8,10,12,14,16,18,20,22,24,26,28,30,32,34,36,38,40,-1,42,44,46,48,50,52,-1,54,56,58,-1,-1,-1,-1,-1,-1,-1,-1,-1,-1,-1,-1,-1,-1,-1,-1,-1,-1,-1,-1,-1,-1,-1,-1,-1,-1,-1,-1],"split_conditions":[6.5E1,7.15E2,8.7E1,4.3E1,8.66E2,4.2400017E1,3.8095074E1,4.88E2,3.9204792E1,4.85915E1,4.381858E1,7.7E1,7.8E1,9.028275E0,9.7E1,2.6E1,5.88E2,5.6E1,5.3E1,7.78E2,6.663952E-1,9.31E2,5.2345688E1,1.7661745E1,1.3456515E1,7.017391E1,7.454922E1,7.037829E-1,9.6E1,5.2233574E1,7.017391E1,1.6663942E0,1.4002336E0,1.3415207E0,1.184271E0,1.2264822E0,1.080297E0,1.0619941E0,8.9298695E-1,1.0723336E0,9.784765E-1,8.994152E-1,8.0168647E-1,6.7822355E-1,2.0266373E-1,9.875537E-1,8.708324E-1,8.6567515E-1,7.345493E-1,7.6218635E-1,6.2489814E-1,6.0126895E-1,4.013414E-1,6.163151E-1,5.0311047E-1,5.150359E-1,4.193308E-1,3.714213E-1,1.7900275E-1],"split_indices":[3,0,3,3,0,4,4,0,4,1,1,3,3,4,3,3,0,3,3,0,0,0,1,4,4,4,4,0,3,4,4,0,0,0,0,0,0,0,0,0,0,0,0,0,0,0,0,0,0,0,0,0,0,0,0,0,0,0,0],"split_type":[0,0,0,0,0,0,0,0,0,0,0,0,0,0,0,0,0,0,0,0,0,0,0,0,0,0,0,0,0,0,0,0,0,0,0,0,0,0,0,0,0,0,0,0,0,0,0,0,0,0,0,0,0,0,0,0,0,0,0],"sum_hessian":[6.361E3,4.174E3,2.187E3,2.963E3,1.211E3,1.375E3,8.12E2,1.924E3,1.039E3,6.12E2,5.99E2,9.86E2,3.89E2,4.91E2,3.21E2,1.281E3,6.43E2,6.9E2,3.49E2,5.93E2,1.9E1,5.36E2,6.3E1,4.98E2,4.88E2,2.2E2,1.69E2,1.49E2,3.42E2,2.4E2,8.1E1,7.85E2,4.96E2,2.86E2,3.57E2,3.96E2,2.94E2,1.53E2,1.96E2,2.32E2,3.61E2,2.71E2,2.65E2,6.1E1,2E0,2.12E2,2.86E2,1.75E2,3.13E2,1.77E2,4.3E1,1.49E2,2E1,2.38E2,1.04E2,1.26E2,1.14E2,7.1E1,1E1],"tree_param":{"num_deleted":"0","num_feature":"5","num_nodes":"59","size_leaf_vector":"1"}},{"base_weights":[1.9799032E1,2.3408152E1,1.3960466E1,2.6634813E1,1.8908699E1,1.6697119E1,1.1511668E1,2.9866884E1,2.2572596E1,1.0823873E0,1.6874832E1,1.8068235E1,1.4913643E1,1.2622271E1,8.813006E0,3.1989567E1,2.6598995E1,2.4590334E1,2.055803E1,9.019969E-1,1.5362453E1,1.9394688E1,1.6993912E1,1.5640673E1,1.2995723E1,1.4363466E1,1.1446966E1,9.712008E0,6.8322325E0,1.7353039E0,1.4840022E0,1.3583723E0,1.1725249E0,1.2795266E0,1.0219096E0,1.0687591E0,8.248895E-1,7.955505E-1,7.067544E-1,9.9461406E-1,7.183839E-1,9.076401E-1,8.0552256E-1,8.525758E-1,7.292635E-1,6.696475E-1,5.083043E-1,8.036106E-1,6.739245E-1,6.549611E-1,5.3334635E-1,5.0145954E-1,3.6179373E-1,3.5769767E-1,1.7922123E-1],"categories":[],"categories_nodes":[],"categories_segments":[],"categories_sizes":[],"default_left":[0,0,0,0,0,0,0,0,0,0,0,0,0,0,0,0,0,0,0,0,0,0,0,0,0,0,0,0,0,0,0,0,0,0,0,0,0,0,0,0,0,0,0,0,0,0,0,0,0,0,0,0,0,0,0],"id":21,"left_children":[1,3,5,7,9,11,13,15,17,-1,19,21,23,25,27,29,31,33,35,-1,37,39,41,43,45,47,49,51,53,-1,-1,-1,-1,-1,-1,-1,-1,-1,-1,-1,-1,-1,-1,-1,-1,-1,-1,-1,-1,-1,-1,-1,-1,-1,-1],"loss_changes":[1.3423975E5,5.677075E4,1.6172844E4,2.945775E4,8.8321875E3,2.5451562E3,3.7610625E3,7.993375E3,3.6446562E3,0E0,1.400375E3,5.909844E2,5.0229688E2,1.7039688E3,6.103203E2,3.7881875E3,2.72125E2,1.5742188E3,1.3626719E3,0E0,5.8539062E1,4.1959375E2,8.124219E1,2.903203E2,2.6828125E1,3.338125E2,5.69125E2,1.308457E2,1.01833496E2,0E0,0E0,0E0,0E0,0E0,0E0,0E0,0E0,0E0,0E0,0E0,0E0,0E0,0E0,0E0,0E0,0E0,0E0,0E0,0E0,0E0,0E0,0E0,0E0,0E0,0E0],"parents":[2147483647,0,0,1,1,2,2,3,3,4,4,5,5,6,6,7,7,8,8,10,10,11,11,12,12,13,13,14,14,15,15,16,16,17,17,18,18,20,20,21,21,22,22,23,23,24,24,25,25,26,26,27,27,28,28],"right_children":[2,4,6,8,10,12,14,16,18,-1,20,22,24,26,28,30,32,34,36,-1,38,40,42,44,46,48,50,52,54,-1,-1,-1,-1,-1,-1,-1,-1,-1,-1,-1,-1,-1,-1,-1,-1,-1,-1,-1,-1,-1,-1,-1,-1,-1,-1],"split_conditions":[6.1E1,5.93E2,8E1,3.4E1,7.69E2,3.281692E1,4.364249E1,3.67E2,4.8E1,1.0823873E0,9.03E2,6.9E1,5.9019974E1,8.8E1,9.4E1,1.5E1,5.58E2,5.2233574E1,5.0287567E1,9.019969E-1,9.65E2,9.2E2,1.125159E1,6.9E1,8.477804E1,1.3456515E1,1.125159E1,7.3630806E1,7.6492805E1,1.7353039E0,1.4840022E0,1.3583723E0,1.1725249E0,1.2795266E0,1.0219096E0,1.0687591E0,8.248895E-1,7.955505E-1,7.067544E-1,9.9461406E-1,7.183839E-1,9.076401E-1,8.0552256E-1,8.525758E-1,7.292635E-1,6.696475E-1,5.083043E-1,8.036106E-1,6.739245E-1,6.549611E-1,5.3334635E-1,5.0145954E-1,3.6179373E-1,3.5769767E-1,1.7922123E-1],"split_indices":[3,0,3,3,0,4,4,0,3,0,0,3,4,3,3,3,0,4,4,0,0,0,4,3,4,4,4,4,4,0,0,0,0,0,0,0,0,0,0,0,0,0,0,0,0,0,0,0,0,0,0,0,0,0,0],"split_type":[0,0,0,0,0,0,0,0,0,0,0,0,0,0,0,0,0,0,0,0,0,0,0,0,0,0,0,0,0,0,0,0,0,0,0,0,0,0,0,0,0,0,0,0,0,0,0,0,0,0,0,0,0,0,0],"sum_hessian":[6.385E3,3.944E3,2.441E3,2.294E3,1.65E3,1.15E3,1.291E3,1.274E3,1.02E3,6.99E2,9.51E2,6.45E2,5.05E2,9.12E2,3.79E2,7.67E2,5.07E2,5.04E2,5.16E2,5.31E2,4.2E2,2.81E2,3.64E2,3.61E2,1.44E2,3.63E2,5.49E2,2.58E2,1.21E2,3.46E2,4.21E2,4.23E2,8.4E1,4.02E2,1.02E2,4.26E2,9E1,2.82E2,1.38E2,2.53E2,2.8E1,1.49E2,2.15E2,1.48E2,2.13E2,1.23E2,2.1E1,1.18E2,2.45E2,1.71E2,3.78E2,2.26E2,3.2E1,1.09E2,1.2E1],"tree_param":{"num_deleted":"0","num_feature":"5","num_nodes":"55","size_leaf_vector":"1"}},{"base_weights":[1.8815567E1,2.2306355E1,1.33991995E1,2.3859852E1,2.0333061E1,1.5927109E1,1.1032975E1,2.421591E1,1.963241E1,2.0959848E1,1.7905676E1,1.6952286E1,1.3656781E1,1.2180929E1,8.756476E0,1.2558683E0,2.3497107E1,1.0087036E0,1.0683933E1,2.1898903E1,1.9672777E1,9.5802385E-1,1.6233107E1,1.7803528E1,1.5462851E1,1.4763085E1,1.2608834E1,1.3240489E1,1.0514799E1,1.034668E1,7.4913535E0,1.206118E0,1.0949169E0,5.7292503E-1,2.2703636E-1,1.0959283E0,1.6748066E-1,1.04291E0,9.44629E-1,8.311575E-1,5.6772465E-1,9.505774E-1,8.5473555E-1,8.4816945E-1,7.31876E-1,7.583643E-1,5.59457E-1,6.6968745E-1,5.594654E-1,7.317021E-1,6.2201643E-1,6.001561E-1,4.809301E-1,5.490448E-1,4.4249955E-1,3.9472064E-1,3.0209124E-1],"categories":[],"categories_nodes":[],"categories_segments":[],"categories_sizes":[],"default_left":[0,0,0,0,0,0,0,0,0,0,0,0,0,0,0,0,0,0,0,0,0,0,0,0,0,0,0,0,0,0,0,0,0,0,0,0,0,0,0,0,0,0,0,0,0,0,0,0,0,0,0,0,0,0,0,0,0],"id":22,"left_children":[1,3,5,7,9,11,13,15,17,19,21,23,25,27,29,-1,31,-1,33,35,37,-1,39,41,43,45,47,49,51,53,55,-1,-1,-1,-1,-1,-1,-1,-1,-1,-1,-1,-1,-1,-1,-1,-1,-1,-1,-1,-1,-1,-1,-1,-1,-1,-1],"loss_changes":[1.200465E5,1.1375375E4,1.4760344E4,2.774375E3,2.227875E3,2.5730938E3,3.2723594E3,6.97375E2,6.23E2,1.2056875E3,4.403125E2,7.7196875E2,2.5440625E2,1.3737031E3,8.0164844E2,0E0,5.923125E2,0E0,5.0700684E0,2.0890625E2,1.4326562E2,0E0,1.1570703E2,1.19390625E2,1.3313281E2,8.8875E1,7.5203125E1,3.9778125E2,3.35375E2,8.411914E1,9.661328E1,0E0,0E0,0E0,0E0,0E0,0E0,0E0,0E0,0E0,0E0,0E0,0E0,0E0,0E0,0E0,0E0,0E0,0E0,0E0,0E0,0E0,0E0,0E0,0E0,0E0,0E0],"parents":[2147483647,0,0,1,1,2,2,3,3,4,4,5,5,6,6,7,7,8,8,9,9,10,10,11,11,12,12,13,13,14,14,16,16,18,18,19,19,20,20,22,22,23,23,24,24,25,25,26,26,27,27,28,28,29,29,30,30],"right_children":[2,4,6,8,10,12,14,16,18,20,22,24,26,28,30,-1,32,-1,34,36,38,-1,40,42,44,46,48,50,52,54,56,-1,-1,-1,-1,-1,-1,-1,-1,-1,-1,-1,-1,-1,-1,-1,-1,-1,-1,-1,-1,-1,-1,-1,-1,-1,-1],"split_conditions":[6E1,3.3E1,8E1,4.470245E1,5.053318E1,4.0775944E1,4.0311596E1,1.4E1,5.5256607E1,4.9E1,4.7E1,7.2E1,6.9E1,9.2E1,8.9E1,1.2558683E0,4.4742073E1,1.0087036E0,4.8543137E1,5.5256607E1,1.7661745E1,9.5802385E-1,8.6973495E1,1.2045821E1,1.125159E1,7.968118E1,5.9019974E1,1.3456515E1,1.1033782E1,6.023664E1,6.5399506E1,1.206118E0,1.0949169E0,5.7292503E-1,2.2703636E-1,1.0959283E0,1.6748066E-1,1.04291E0,9.44629E-1,8.311575E-1,5.6772465E-1,9.505774E-1,8.5473555E-1,8.4816945E-1,7.31876E-1,7.583643E-1,5.59457E-1,6.6968745E-1,5.594654E-1,7.317021E-1,6.2201643E-1,6.001561E-1,4.809301E-1,5.490448E-1,4.4249955E-1,3.9472064E-1,3.0209124E-1],"split_indices":[3,3,3,1,4,4,4,3,1,3,3,3,3,3,3,0,4,0,2,1,4,0,4,4,4,4,4,4,4,4,4,0,0,0,0,0,0,0,0,0,0,0,0,0,0,0,0,0,0,0,0,0,0,0,0,0,0],"split_type":[0,0,0,0,0,0,0,0,0,0,0,0,0,0,0,0,0,0,0,0,0,0,0,0,0,0,0,0,0,0,0,0,0,0,0,0,0,0,0,0,0,0,0,0,0,0,0,0,0,0,0,0,0,0,0,0,0],"sum_hessian":[6.364E3,3.868E3,2.496E3,2.158E3,1.71E3,1.204E3,1.292E3,1.986E3,1.72E2,1.353E3,3.57E2,8.25E2,3.79E2,8.56E2,4.36E2,8.66E2,1.12E3,1.61E2,1.1E1,7.73E2,5.8E2,1.98E2,1.59E2,5.18E2,3.07E2,1.78E2,2.01E2,5.19E2,3.37E2,1.9E2,2.46E2,7.95E2,3.25E2,9E0,2E0,7.72E2,1E0,2.2E2,3.6E2,1.45E2,1.4E1,1.82E2,3.36E2,1.02E2,2.05E2,1.57E2,2.1E1,1.24E2,7.7E1,1.83E2,3.36E2,1.22E2,2.15E2,1.29E2,6.1E1,1.89E2,5.7E1],"tree_param":{"num_deleted":"0","num_feature":"5","num_nodes":"57","size_leaf_vector":"1"}},{"base_weights":[1.791222E1,2.1335709E1,1.28295145E1,2.2702747E1,1.9518538E1,1.5271212E1,1.0406065E1,2.3043058E1,1.7927708E1,2.0037834E1,1.6752342E1,1.6547863E1,1.3667186E1,1.1350609E1,7.954337E0,2.3902475E1,2.2343744E1,1.842368E1,5.344372E-1,2.093888E1,1.8997732E1,8.897068E-1,1.527723E1,1.7872433E1,1.5442406E1,1.4382695E1,1.1712496E1,1.3036421E1,1.0385235E1,9.238402E0,6.7682667E0,1.2037314E0,1.0048292E0,1.1393923E0,1.0224413E0,9.451065E-1,6.939098E-1,1.0479255E0,1.6329364E-1,1.0117345E0,9.10557E-1,7.844318E-1,5.3737634E-1,9.4761926E-1,8.4639657E-1,8.2659113E-1,7.3404133E-1,7.5764817E-1,6.389422E-1,6.34877E-1,5.3103274E-1,7.36672E-1,6.1359125E-1,5.7315534E-1,4.6525636E-1,4.769648E-1,2.9580647E-1,3.5088658E-1,1.7771792E-1],"categories":[],"categories_nodes":[],"categories_segments":[],"categories_sizes":[],"default_left":[0,0,0,0,0,0,0,0,0,0,0,0,0,0,0,0,0,0,0,0,0,0,0,0,0,0,0,0,0,0,0,0,0,0,0,0,0,0,0,0,0,0,0,0,0,0,0,0,0,0,0,0,0,0,0,0,0,0,0],"id":23,"left_children":[1,3,5,7,9,11,13,15,17,19,21,23,25,27,29,31,33,35,-1,37,39,-1,41,43,45,47,49,51,53,55,57,-1,-1,-1,-1,-1,-1,-1,-1,-1,-1,-1,-1,-1,-1,-1,-1,-1,-1,-1,-1,-1,-1,-1,-1,-1,-1,-1,-1],"loss_changes":[1.11681375E5,9.103625E3,1.5178781E4,3.140625E3,2.0445625E3,2.4134375E3,2.9294688E3,6.9075E2,3.416211E2,9.048125E2,1.4000781E2,7.680156E2,6.3853906E2,1.3927734E3,4.9488672E2,1.0584375E2,4.925625E2,3.996875E1,0E0,1.865625E2,2.6978125E2,0E0,5.1283203E1,3.5390625E0,8.584375E1,3.227578E2,3.722461E1,2.5776562E2,5.941914E2,1.1650488E2,1.3059766E2,0E0,0E0,0E0,0E0,0E0,0E0,0E0,0E0,0E0,0E0,0E0,0E0,0E0,0E0,0E0,0E0,0E0,0E0,0E0,0E0,0E0,0E0,0E0,0E0,0E0,0E0,0E0,0E0],"parents":[2147483647,0,0,1,1,2,2,3,3,4,4,5,5,6,6,7,7,8,8,9,9,10,10,11,11,12,12,13,13,14,14,15,15,16,16,17,17,19,19,20,20,22,22,23,23,24,24,25,25,26,26,27,27,28,28,29,29,30,30],"right_children":[2,4,6,8,10,12,14,16,18,20,22,24,26,28,30,32,34,36,-1,38,40,-1,42,44,46,48,50,52,54,56,58,-1,-1,-1,-1,-1,-1,-1,-1,-1,-1,-1,-1,-1,-1,-1,-1,-1,-1,-1,-1,-1,-1,-1,-1,-1,-1,-1,-1],"split_conditions":[5.9E1,3.3E1,8E1,4.571415E1,5.4730614E1,3.3033504E1,4.440042E1,1.4E1,5.5256607E1,4.7E1,4.7E1,6.8E1,5.9019974E1,8.7E1,9E1,6.893809E1,5.1569862E1,5.6086807E1,5.344372E-1,5.5256607E1,1.7661745E1,8.897068E-1,8.6973495E1,1.0344308E1,1.125159E1,7.2E1,6.9E1,1.3456515E1,2.1513681E1,7.968118E1,7.6492805E1,1.2037314E0,1.0048292E0,1.1393923E0,1.0224413E0,9.451065E-1,6.939098E-1,1.0479255E0,1.6329364E-1,1.0117345E0,9.10557E-1,7.844318E-1,5.3737634E-1,9.4761926E-1,8.4639657E-1,8.2659113E-1,7.3404133E-1,7.5764817E-1,6.389422E-1,6.34877E-1,5.3103274E-1,7.36672E-1,6.1359125E-1,5.7315534E-1,4.6525636E-1,4.769648E-1,2.9580647E-1,3.5088658E-1,1.7771792E-1],"split_indices":[3,3,3,1,4,4,4,3,1,3,3,3,4,3,3,2,4,4,0,1,4,0,4,4,4,3,3,4,4,4,4,0,0,0,0,0,0,0,0,0,0,0,0,0,0,0,0,0,0,0,0,0,0,0,0,0,0,0,0],"split_type":[0,0,0,0,0,0,0,0,0,0,0,0,0,0,0,0,0,0,0,0,0,0,0,0,0,0,0,0,0,0,0,0,0,0,0,0,0,0,0,0,0,0,0,0,0,0,0,0,0,0,0,0,0,0,0,0,0,0,0],"sum_hessian":[6.433E3,3.842E3,2.591E3,2.186E3,1.656E3,1.288E3,1.303E3,2.037E3,1.49E2,1.389E3,2.67E2,7.12E2,5.76E2,9.38E2,3.65E2,8.99E2,1.138E3,1.38E2,1.1E1,7.34E2,6.55E2,1.5E2,1.17E2,3.17E2,3.95E2,4.17E2,1.59E2,3.37E2,6.01E2,1.72E2,1.93E2,8.55E2,4.4E1,9.13E2,2.25E2,1.22E2,1.6E1,7.33E2,1E0,2.45E2,4.1E2,1.05E2,1.2E1,1.39E2,1.78E2,1.54E2,2.41E2,2.76E2,1.41E2,7.8E1,8.1E1,9.9E1,2.38E2,2.96E2,3.05E2,1.56E2,1.6E1,1.78E2,1.5E1],"tree_param":{"num_deleted":"0","num_feature":"5","num_nodes":"59","size_leaf_vector":"1"}},{"base_weights":[1.6973042E1,2.0113928E1,1.1957072E1,2.3086735E1,1.5620949E1,1.3959099E1,9.630204E0,2.5982042E1,1.9999315E1,1.7836866E1,1.35468025E1,1.5628513E1,1.2781804E1,1.1317606E1,8.367979E0,2.8156012E1,2.2694578E1,2.1668718E1,1.7802448E1,1.8156237E1,1.4177127E1,1.4451566E1,1.2019361E1,1.7014036E1,1.4648044E1,1.3604131E1,1.1153955E1,1.2053744E1,9.436151E0,9.301328E0,6.9468646E0,1.4874235E0,1.2567086E0,1.1475662E0,6.534242E-1,1.1846272E0,1.0017861E0,9.733929E-1,8.088808E-1,9.546159E-1,8.4819716E-1,7.4171877E-1,3.8199675E-1,7.373581E-1,5.665007E-1,6.202478E-1,4.4765782E-1,8.752422E-1,5.922859E-1,7.826087E-1,6.9650006E-1,7.192185E-1,5.986816E-1,5.815396E-1,4.0785718E-1,5.755786E-1,6.591682E-1,5.374967E-1,4.3434235E-1,4.9071822E-1,3.7454376E-1,3.8260892E-1,2.7119797E-1],"categories":[],"categories_nodes":[],"categories_segments":[],"categories_sizes":[],"default_left":[0,0,0,0,0,0,0,0,0,0,0,0,0,0,0,0,0,0,0,0,0,0,0,0,0,0,0,0,0,0,0,0,0,0,0,0,0,0,0,0,0,0,0,0,0,0,0,0,0,0,0,0,0,0,0,0,0,0,0,0,0,0,0],"id":24,"left_children":[1,3,5,7,9,11,13,15,17,19,21,23,25,27,29,31,33,35,37,39,41,43,45,47,49,51,53,55,57,59,61,-1,-1,-1,-1,-1,-1,-1,-1,-1,-1,-1,-1,-1,-1,-1,-1,-1,-1,-1,-1,-1,-1,-1,-1,-1,-1,-1,-1,-1,-1,-1,-1],"loss_changes":[1.002265E5,5.1997875E4,1.1316031E4,2.054975E4,6.9467188E3,2.3925938E3,2.3333672E3,8.0300625E3,3.8134688E3,6.227031E2,9.4846875E2,4.8570312E2,8.910469E2,5.579883E2,8.055E2,2.7459375E3,9.06125E2,1.6602812E3,1.0380625E3,4.4509375E2,1.6594336E2,2.988828E2,2.5308984E2,3.456328E2,1.55703125E1,4.8039844E2,2.8666406E2,5.9535156E1,4.541992E1,2.9151172E2,2.4206348E2,0E0,0E0,0E0,0E0,0E0,0E0,0E0,0E0,0E0,0E0,0E0,0E0,0E0,0E0,0E0,0E0,0E0,0E0,0E0,0E0,0E0,0E0,0E0,0E0,0E0,0E0,0E0,0E0,0E0,0E0,0E0,0E0],"parents":[2147483647,0,0,1,1,2,2,3,3,4,4,5,5,6,6,7,7,8,8,9,9,10,10,11,11,12,12,13,13,14,14,15,15,16,16,17,17,18,18,19,19,20,20,21,21,22,22,23,23,24,24,25,25,26,26,27,27,28,28,29,29,30,30],"right_children":[2,4,6,8,10,12,14,16,18,20,22,24,26,28,30,32,34,36,38,40,42,44,46,48,50,52,54,56,58,60,62,-1,-1,-1,-1,-1,-1,-1,-1,-1,-1,-1,-1,-1,-1,-1,-1,-1,-1,-1,-1,-1,-1,-1,-1,-1,-1,-1,-1,-1,-1,-1,-1],"split_conditions":[6.1E1,6.11E2,8.3E1,3.1E1,8.04E2,2.42136E1,2.5266464E1,3.67E2,4.8E1,4.5282608E1,9.27E2,7E1,7.5E1,9.5E1,9.3E1,4.0612057E1,4.8910385E1,2.5266464E1,2.624102E1,7.15E2,5.2345688E1,4.4522995E1,4.3190098E1,9.31E2,5.701243E0,5.341098E1,6.149423E1,6.89E2,1.956556E0,5.6528927E1,5.2507126E1,1.4874235E0,1.2567086E0,1.1475662E0,6.534242E-1,1.1846272E0,1.0017861E0,9.733929E-1,8.088808E-1,9.546159E-1,8.4819716E-1,7.4171877E-1,3.8199675E-1,7.373581E-1,5.665007E-1,6.202478E-1,4.4765782E-1,8.752422E-1,5.922859E-1,7.826087E-1,6.9650006E-1,7.192185E-1,5.986816E-1,5.815396E-1,4.0785718E-1,5.755786E-1,6.591682E-1,5.374967E-1,4.3434235E-1,4.9071822E-1,3.7454376E-1,3.8260892E-1,2.7119797E-1],"split_indices":[3,0,3,3,0,4,4,0,3,1,0,3,3,3,3,4,1,4,4,0,1,1,1,0,4,4,4,0,4,4,4,0,0,0,0,0,0,0,0,0,0,0,0,0,0,0,0,0,0,0,0,0,0,0,0,0,0,0,0,0,0,0,0],"split_type":[0,0,0,0,0,0,0,0,0,0,0,0,0,0,0,0,0,0,0,0,0,0,0,0,0,0,0,0,0,0,0,0,0,0,0,0,0,0,0,0,0,0,0,0,0,0,0,0,0,0,0,0,0,0,0,0,0,0,0,0,0,0,0],"sum_hessian":[6.376E3,3.919E3,2.457E3,2.356E3,1.563E3,1.318E3,1.139E3,1.212E3,1.144E3,7.52E2,8.11E2,5.4E2,7.78E2,4.84E2,6.55E2,7.25E2,4.87E2,6.45E2,4.99E2,6.88E2,6.4E1,5.04E2,3.07E2,2.17E2,3.23E2,5.12E2,2.66E2,3.44E2,1.4E2,3.92E2,2.63E2,4.69E2,2.56E2,4.73E2,1.4E1,2.82E2,3.63E2,2.41E2,2.58E2,3.77E2,3.11E2,5.7E1,7E0,4.57E2,4.7E1,2.7E2,3.7E1,1.96E2,2.1E1,1.26E2,1.97E2,3.41E2,1.71E2,2.27E2,3.9E1,2.4E2,1.04E2,4.6E1,9.4E1,3.02E2,9E1,1.77E2,8.6E1],"tree_param":{"num_deleted":"0","num_feature":"5","num_nodes":"63","size_leaf_vector":"1"}},{"base_weights":[1.6065184E1,1.7223263E1,1.2884608E1,1.8906086E1,1.6325994E1,1.3536318E1,1.1479371E1,2.0787863E1,1.7707989E1,1.6565044E1,1.3249774E1,1.3719428E1,1.1280081E1,1.1764805E1,8.180379E0,2.1858383E1,2.0088552E1,9.221382E-1,1.6625172E1,1.7262516E1,1.5554755E1,1.4263344E1,1.2268835E1,1.4170079E1,6.5068215E-1,5.740189E-1,2.7293906E-1,6.098905E-1,1.11329975E1,4.268263E-1,1.1088369E-1,2.04698E-1,1.0958278E0,1.013257E0,7.1555406E-1,8.369218E-1,5.187734E-1,8.9917797E-1,8.2331896E-1,7.82749E-1,5.9814006E-1,7.276211E-1,3.5340744E-1,6.3966334E-1,4.1385767E-1,7.6264757E-1,6.816066E-1,5.5839294E-1,9.094405E-2],"categories":[],"categories_nodes":[],"categories_segments":[],"categories_sizes":[],"default_left":[0,0,0,0,0,0,0,0,0,0,0,0,0,0,0,0,0,0,0,0,0,0,0,0,0,0,0,0,0,0,0,0,0,0,0,0,0,0,0,0,0,0,0,0,0,0,0,0,0],"id":25,"left_children":[1,3,5,7,9,11,13,15,17,19,21,23,25,27,29,31,33,-1,35,37,39,41,43,45,-1,-1,-1,-1,47,-1,-1,-1,-1,-1,-1,-1,-1,-1,-1,-1,-1,-1,-1,-1,-1,-1,-1,-1,-1],"loss_changes":[2.3347875E4,6.769875E3,1.4124688E3,3.2933125E3,2.034375E3,3.2614062E2,4.2071875E2,2.953125E1,4.881875E2,1.732625E3,4.970703E1,1.565625E2,4.576758E1,1.8125E0,8.0877686E1,1.5414844E2,1.08890625E2,0E0,1.19390625E2,6.63125E2,2.339375E2,1.1553711E2,1.4949805E2,1.6663281E2,0E0,0E0,0E0,0E0,4.982617E1,0E0,0E0,0E0,0E0,0E0,0E0,0E0,0E0,0E0,0E0,0E0,0E0,0E0,0E0,0E0,0E0,0E0,0E0,0E0,0E0],"parents":[2147483647,0,0,1,1,2,2,3,3,4,4,5,5,6,6,7,7,8,8,9,9,10,10,11,11,12,12,13,13,14,14,15,15,16,16,18,18,19,19,20,20,21,21,22,22,23,23,28,28],"right_children":[2,4,6,8,10,12,14,16,18,20,22,24,26,28,30,32,34,-1,36,38,40,42,44,46,-1,-1,-1,-1,48,-1,-1,-1,-1,-1,-1,-1,-1,-1,-1,-1,-1,-1,-1,-1,-1,-1,-1,-1,-1],"split_conditions":[7.38E2,2.0127121E1,9.2E2,2.77E2,7.164077E1,4.553685E1,4.571415E1,2.6571825E0,5.52E2,4.46E2,7.968118E1,3.7676785E1,5.3667603E1,9.65E2,5.3667603E1,5E0,7.148379E1,9.221382E-1,5.0306633E1,3.9414757E1,4.9249046E1,4.7490925E1,6.01E2,8E2,6.5068215E-1,5.740189E-1,2.7293906E-1,6.098905E-1,9.050639E1,4.268263E-1,1.1088369E-1,2.04698E-1,1.0958278E0,1.013257E0,7.1555406E-1,8.369218E-1,5.187734E-1,8.9917797E-1,8.2331896E-1,7.82749E-1,5.9814006E-1,7.276211E-1,3.5340744E-1,6.3966334E-1,4.1385767E-1,7.6264757E-1,6.816066E-1,5.5839294E-1,9.094405E-2],"split_indices":[0,4,0,0,4,1,1,4,0,0,4,4,1,0,1,0,2,0,1,4,1,1,0,0,0,0,0,0,4,0,0,0,0,0,0,0,0,0,0,0,0,0,0,0,0,0,0,0,0],"split_type":[0,0,0,0,0,0,0,0,0,0,0,0,0,0,0,0,0,0,0,0,0,0,0,0,0,0,0,0,0,0,0,0,0,0,0,0,0,0,0,0,0,0,0,0,0,0,0,0,0],"sum_hessian":[6.398E3,4.687E3,1.711E3,1.623E3,3.064E3,1.163E3,5.48E2,6.25E2,9.98E2,2.839E3,2.25E2,1.071E3,9.2E1,5.02E2,4.6E1,2.35E2,3.9E2,5.85E2,4.13E2,1.67E3,1.169E3,1.04E2,1.21E2,6.42E2,4.29E2,8.8E1,4E0,2.87E2,2.15E2,4.3E1,3E0,1E0,2.34E2,3.76E2,1.4E1,4.04E2,9E0,8.65E2,8.05E2,1.134E3,3.5E1,9.9E1,5E0,1.05E2,1.6E1,2.04E2,4.38E2,2.14E2,1E0],"tree_param":{"num_deleted":"0","num_feature":"5","num_nodes":"49","size_leaf_vector":"1"}},{"base_weights":[1.5396689E1,1.8048801E1,1.0085225E1,2.015086E1,1.3288452E1,1.1589864E1,7.7246947E0,2.2334171E1,1.6351837E1,1.47267685E1,1.1592384E1,1.2267958E1,9.116878E0,8.509877E0,5.4066067E0,2.4323046E1,1.913812E1,1.7989239E1,1.4966594E1,1.4957086E1,1.0176821E1,1.1923343E1,9.20768E0,1.3248619E1,1.1120729E1,9.9685335E0,7.6007304E0,9.625497E0,7.727952E0,6.007008E0,4.0086117E0,1.3106354E0,1.0620568E0,1.0384856E0,8.855802E-1,9.526645E-1,8.2275164E-1,8.198385E-1,6.817566E-1,7.8892916E-1,7.0377547E-1,5.555956E-1,3.7978694E-1,5.53489E-1,6.492876E-1,4.7174573E-1,1.3225578E-1,7.3686117E-1,6.2400943E-1,6.185835E-1,5.166782E-1,5.1161927E-1,3.5273588E-1,3.9287135E-1,2.1753506E-1,4.3548822E-1,5.407926E-1,4.1166377E-1,3.2474512E-1,3.039816E-1,9.45401E-2,2.1953431E-1,9.457729E-2],"categories":[],"categories_nodes":[],"categories_segments":[],"categories_sizes":[],"default_left":[0,0,0,0,0,0,0,0,0,0,0,0,0,0,0,0,0,0,0,0,0,0,0,0,0,0,0,0,0,0,0,0,0,0,0,0,0,0,0,0,0,0,0,0,0,0,0,0,0,0,0,0,0,0,0,0,0,0,0,0,0,0,0],"id":26,"left_children":[1,3,5,7,9,11,13,15,17,19,21,23,25,27,29,31,33,35,37,39,41,43,45,47,49,51,53,55,57,59,61,-1,-1,-1,-1,-1,-1,-1,-1,-1,-1,-1,-1,-1,-1,-1,-1,-1,-1,-1,-1,-1,-1,-1,-1,-1,-1,-1,-1,-1,-1,-1,-1],"loss_changes":[8.9690375E4,4.23E4,7.4650312E3,2.409525E4,3.0152344E3,2.0631094E3,1.4665156E3,1.142125E4,2.1804062E3,5.8446875E2,3.6691406E2,9.945781E2,2.8965234E2,4.6558594E2,1.5470312E2,6.13475E3,1.3125625E3,4.8639062E2,9.018125E2,2.6096875E2,4.897949E0,3.3415625E2,9.135986E1,4.360703E2,3.3890234E2,6.466016E1,5.424756E1,1.7939844E2,1.7644531E2,3.2447754E1,4.5889526E1,0E0,0E0,0E0,0E0,0E0,0E0,0E0,0E0,0E0,0E0,0E0,0E0,0E0,0E0,0E0,0E0,0E0,0E0,0E0,0E0,0E0,0E0,0E0,0E0,0E0,0E0,0E0,0E0,0E0,0E0,0E0,0E0],"parents":[2147483647,0,0,1,1,2,2,3,3,4,4,5,5,6,6,7,7,8,8,9,9,10,10,11,11,12,12,13,13,14,14,15,15,16,16,17,17,18,18,19,19,20,20,21,21,22,22,23,23,24,24,25,25,26,26,27,27,28,28,29,29,30,30],"right_children":[2,4,6,8,10,12,14,16,18,20,22,24,26,28,30,32,34,36,38,40,42,44,46,48,50,52,54,56,58,60,62,-1,-1,-1,-1,-1,-1,-1,-1,-1,-1,-1,-1,-1,-1,-1,-1,-1,-1,-1,-1,-1,-1,-1,-1,-1,-1,-1,-1,-1,-1,-1,-1],"split_conditions":[6.6E1,6.97E2,8.7E1,4.2E1,8.7E2,4.8083435E1,4.7053516E1,4.39E2,2.645233E1,4.714034E1,4.2554585E1,7.8E1,7.9E1,1.730978E1,9.6E1,2.5E1,5.62E2,5.6E1,5.4E1,7.89E2,5.1021362E1,3.6E1,5.2345688E1,1.4131332E1,1.5507144E1,8.477804E1,8.477804E1,5.24E2,9.6E1,8.6973495E1,7.6492805E1,1.3106354E0,1.0620568E0,1.0384856E0,8.855802E-1,9.526645E-1,8.2275164E-1,8.198385E-1,6.817566E-1,7.8892916E-1,7.0377547E-1,5.555956E-1,3.7978694E-1,5.53489E-1,6.492876E-1,4.7174573E-1,1.3225578E-1,7.3686117E-1,6.2400943E-1,6.185835E-1,5.166782E-1,5.1161927E-1,3.5273588E-1,3.9287135E-1,2.1753506E-1,4.3548822E-1,5.407926E-1,4.1166377E-1,3.2474512E-1,3.039816E-1,9.45401E-2,2.1953431E-1,9.457729E-2],"split_indices":[3,0,3,3,0,4,4,0,4,1,1,3,3,4,3,3,0,3,3,0,1,3,1,4,4,4,4,0,3,4,4,0,0,0,0,0,0,0,0,0,0,0,0,0,0,0,0,0,0,0,0,0,0,0,0,0,0,0,0,0,0,0,0],"split_type":[0,0,0,0,0,0,0,0,0,0,0,0,0,0,0,0,0,0,0,0,0,0,0,0,0,0,0,0,0,0,0,0,0,0,0,0,0,0,0,0,0,0,0,0,0,0,0,0,0,0,0,0,0,0,0,0,0,0,0,0,0,0,0],"sum_hessian":[6.379E3,4.253E3,2.126E3,2.948E3,1.305E3,1.296E3,8.3E2,1.869E3,1.079E3,7.02E2,6.03E2,1.014E3,2.82E2,6.18E2,2.12E2,1.148E3,7.21E2,4.89E2,5.9E2,6.66E2,3.6E1,5.26E2,7.7E1,5.41E2,4.73E2,1.77E2,1.05E2,2.5E2,3.68E2,1.46E2,6.6E1,7.07E2,4.41E2,3.3E2,3.91E2,2.82E2,2.07E2,2.79E2,3.11E2,3.36E2,3.3E2,2.4E1,1.2E1,2.98E2,2.28E2,7.4E1,3E0,1.78E2,3.63E2,1.77E2,2.96E2,1.6E2,1.7E1,9.6E1,9E0,1.46E2,1.04E2,2.57E2,1.11E2,1.43E2,3E0,5.5E1,1.1E1],"tree_param":{"num_deleted":"0","num_feature":"5","num_nodes":"63","size_leaf_vector":"1"}},{"base_weights":[1.4591624E1,1.7092981E1,9.570535E0,1.9647758E1,1.3612665E1,1.1063375E1,7.523753E0,2.2543022E1,1.5971339E1,1.5503717E1,1.1725313E1,1.2512358E1,1.000192E1,9.065795E0,6.4398065E0,2.4550611E1,2.0523287E1,1.7599583E1,1.4311097E1,1.6037258E1,7.0980674E-1,1.2592555E1,1.0381866E1,1.3293346E1,1.1422371E1,1.0673682E1,8.543392E0,8.344447E0,1.0355521E1,7.1933284E0,5.323004E0,1.3895011E0,1.1072296E0,1.0602642E0,9.3578386E-1,9.50421E-1,7.887792E-1,7.589118E-1,5.844068E-1,8.146181E-1,6.980216E-1,5.787917E-1,6.6304547E-1,4.7532377E-1,5.681101E-1,6.659854E-1,1.3659926E-1,5.268006E-1,6.0892874E-1,5.9837276E-1,4.949846E-1,4.745484E-1,3.809402E-1,4.4474554E-1,3.341621E-1,5.588085E-1,4.6673003E-1,3.8585323E-1,2.908593E-1,2.9310247E-1,1.9390316E-1],"categories":[],"categories_nodes":[],"categories_segments":[],"categories_sizes":[],"default_left":[0,0,0,0,0,0,0,0,0,0,0,0,0,0,0,0,0,0,0,0,0,0,0,0,0,0,0,0,0,0,0,0,0,0,0,0,0,0,0,0,0,0,0,0,0,0,0,0,0,0,0,0,0,0,0,0,0,0,0,0,0],"id":27,"left_children":[1,3,5,7,9,11,13,15,17,19,21,23,25,27,29,31,33,35,37,39,-1,41,43,45,47,49,51,53,55,57,59,-1,-1,-1,-1,-1,-1,-1,-1,-1,-1,-1,-1,-1,-1,-1,-1,-1,-1,-1,-1,-1,-1,-1,-1,-1,-1,-1,-1,-1,-1],"loss_changes":[8.1146875E4,3.81435E4,6.5013906E3,2.6133438E4,6.3567812E3,1.7881562E3,1.4660195E3,5.1323125E3,2.7217188E3,4.0857812E2,9.423125E2,2.9252344E2,6.171953E2,2.615371E2,4.1529688E2,4.7780938E3,4.6484375E2,1.1160469E3,1.0735469E3,1.11625E2,0E0,2.2363281E2,2.069336E2,4.657422E1,2.2498047E1,3.731953E2,1.3182617E2,1.6458789E2,4.591797E0,1.8502344E2,1.4940039E2,0E0,0E0,0E0,0E0,0E0,0E0,0E0,0E0,0E0,0E0,0E0,0E0,0E0,0E0,0E0,0E0,0E0,0E0,0E0,0E0,0E0,0E0,0E0,0E0,0E0,0E0,0E0,0E0,0E0,0E0],"parents":[2147483647,0,0,1,1,2,2,3,3,4,4,5,5,6,6,7,7,8,8,9,9,10,10,11,11,12,12,13,13,14,14,15,15,16,16,17,17,18,18,19,19,21,21,22,22,23,23,24,24,25,25,26,26,27,27,28,28,29,29,30,30],"right_children":[2,4,6,8,10,12,14,16,18,20,22,24,26,28,30,32,34,36,38,40,-1,42,44,46,48,50,52,54,56,58,60,-1,-1,-1,-1,-1,-1,-1,-1,-1,-1,-1,-1,-1,-1,-1,-1,-1,-1,-1,-1,-1,-1,-1,-1,-1,-1,-1,-1,-1,-1],"split_conditions":[6.6E1,5.88E2,8.6E1,3.7E1,8.04E2,2.4623478E1,2.3841967E1,2.92E2,5.2E1,7.34E2,9.2E2,7.8E1,5.2233574E1,6.15E2,4.7053516E1,1.5E1,5.05E2,3.347797E1,4.5567944E1,5.7E1,7.0980674E-1,2.6E1,3.6E1,9.94E2,5.02E2,7.3E1,7.5E1,9.7E1,1.0142187E1,9.6E1,9.6E1,1.3895011E0,1.1072296E0,1.0602642E0,9.3578386E-1,9.50421E-1,7.887792E-1,7.589118E-1,5.844068E-1,8.146181E-1,6.980216E-1,5.787917E-1,6.6304547E-1,4.7532377E-1,5.681101E-1,6.659854E-1,1.3659926E-1,5.268006E-1,6.0892874E-1,5.9837276E-1,4.949846E-1,4.745484E-1,3.809402E-1,4.4474554E-1,3.341621E-1,5.588085E-1,4.6673003E-1,3.8585323E-1,2.908593E-1,2.9310247E-1,1.9390316E-1],"split_indices":[3,0,3,3,0,4,4,0,3,0,0,3,4,0,4,3,0,4,4,3,0,3,3,0,0,3,3,3,4,3,3,0,0,0,0,0,0,0,0,0,0,0,0,0,0,0,0,0,0,0,0,0,0,0,0,0,0,0,0,0,0],"split_type":[0,0,0,0,0,0,0,0,0,0,0,0,0,0,0,0,0,0,0,0,0,0,0,0,0,0,0,0,0,0,0,0,0,0,0,0,0,0,0,0,0,0,0,0,0,0,0,0,0,0,0,0,0,0,0,0,0,0,0,0,0],"sum_hessian":[6.473E3,4.319E3,2.154E3,2.488E3,1.831E3,1.243E3,9.11E2,1.389E3,1.099E3,9.11E2,9.2E2,5.21E2,7.22E2,3.73E2,5.38E2,6.91E2,6.98E2,5.5E2,5.49E2,6.39E2,2.72E2,5.54E2,3.66E2,2.97E2,2.24E2,4.9E2,2.32E2,2.44E2,1.29E2,3.18E2,2.2E2,2.9E2,4.01E2,4.99E2,1.99E2,3.05E2,2.45E2,4.09E2,1.4E2,5.63E2,7.6E1,2.27E2,3.27E2,1.99E2,1.67E2,2.96E2,1E0,1.1E2,1.14E2,1.78E2,3.12E2,1.1E2,1.22E2,1.8E2,6.4E1,6.6E1,6.3E1,2.27E2,9.1E1,1.58E2,6.2E1],"tree_param":{"num_deleted":"0","num_feature":"5","num_nodes":"61","size_leaf_vector":"1"}},{"base_weights":[1.38366785E1,1.5024378E1,1.1584055E1,1.6363716E1,1.3859423E1,1.2265152E1,1.0146706E1,1.7252127E1,1.5128816E1,1.4253058E1,1.18105755E1,1.2467854E1,1.0293338E1,1.0382594E1,7.394617E0,1.8416039E1,1.6471926E1,1.5252845E1,1.0384797E1,1.4384555E1,1.2054741E1,1.2234257E1,9.76771E0,1.3112275E1,1.1823106E1,5.274882E-1,3.6838326E-1,5.398849E-1,9.466612E0,3.9381498E-1,4.198577E0,9.3399554E-1,7.651859E-1,4.5320162E-1,8.256685E-1,8.0179614E-1,7.392359E-1,5.332561E-1,9.8433115E-2,7.2829545E-1,6.632225E-1,6.230058E-1,4.5282292E-1,6.325863E-1,5.368277E-1,-9.594298E-3,4.9596125E-1,6.60786E-1,3.870887E-1,5.949169E-1,4.3633762E-1,4.7481823E-1,7.8979395E-2,2.1954146E-1,6.1707687E-2],"categories":[],"categories_nodes":[],"categories_segments":[],"categories_sizes":[],"default_left":[0,0,0,0,0,0,0,0,0,0,0,0,0,0,0,0,0,0,0,0,0,0,0,0,0,0,0,0,0,0,0,0,0,0,0,0,0,0,0,0,0,0,0,0,0,0,0,0,0,0,0,0,0,0,0],"id":28,"left_children":[1,3,5,7,9,11,13,15,17,19,21,23,25,27,29,31,33,35,37,39,41,43,45,47,49,-1,-1,-1,51,-1,53,-1,-1,-1,-1,-1,-1,-1,-1,-1,-1,-1,-1,-1,-1,-1,-1,-1,-1,-1,-1,-1,-1,-1,-1],"loss_changes":[1.691125E4,6.2920625E3,2.038125E3,1.865125E3,1.6390312E3,4.688125E2,3.8803906E2,7.1375E2,3.235E2,3.6859375E2,1.9814453E2,4.05875E2,3.105371E1,1.4759375E2,5.9299316E1,7.63125E1,5.909375E1,5.471875E1,3.5625977E1,1.65125E2,2.3285156E1,5.1742188E1,1.0451709E2,2.6767188E2,5.5734375E1,0E0,0E0,0E0,3.498242E1,0E0,2.8019714E-1,0E0,0E0,0E0,0E0,0E0,0E0,0E0,0E0,0E0,0E0,0E0,0E0,0E0,0E0,0E0,0E0,0E0,0E0,0E0,0E0,0E0,0E0,0E0,0E0],"parents":[2147483647,0,0,1,1,2,2,3,3,4,4,5,5,6,6,7,7,8,8,9,9,10,10,11,11,12,12,13,13,14,14,15,15,16,16,17,17,18,18,19,19,20,20,21,21,22,22,23,23,24,24,28,28,30,30],"right_children":[2,4,6,8,10,12,14,16,18,20,22,24,26,28,30,32,34,36,38,40,42,44,46,48,50,-1,-1,-1,52,-1,54,-1,-1,-1,-1,-1,-1,-1,-1,-1,-1,-1,-1,-1,-1,-1,-1,-1,-1,-1,-1,-1,-1,-1,-1],"split_conditions":[6.6E2,2.7572695E1,8.95E2,3.95E2,6.424409E1,4.4263916E1,4.5282608E1,7.328296E0,4.8910385E1,4.6383896E1,8.6973495E1,7.78E2,5.2345688E1,9.65E2,5.1021362E1,4.4522995E1,7.610087E0,5.701243E0,2.624102E1,5.68E2,5.5796856E1,4.0975258E1,2.2206892E1,7.6492805E1,7.454922E1,5.274882E-1,3.6838326E-1,5.398849E-1,9.050639E1,3.9381498E-1,5.5256607E1,9.3399554E-1,7.651859E-1,4.5320162E-1,8.256685E-1,8.0179614E-1,7.392359E-1,5.332561E-1,9.8433115E-2,7.2829545E-1,6.632225E-1,6.230058E-1,4.5282292E-1,6.325863E-1,5.368277E-1,-9.594298E-3,4.9596125E-1,6.60786E-1,3.870887E-1,5.949169E-1,4.3633762E-1,4.7481823E-1,7.8979395E-2,2.1954146E-1,6.1707687E-2],"split_indices":[0,4,0,0,4,1,1,4,1,1,4,0,1,0,1,1,4,4,4,0,4,1,1,4,4,0,0,0,4,0,1,0,0,0,0,0,0,0,0,0,0,0,0,0,0,0,0,0,0,0,0,0,0,0,0],"split_type":[0,0,0,0,0,0,0,0,0,0,0,0,0,0,0,0,0,0,0,0,0,0,0,0,0,0,0,0,0,0,0,0,0,0,0,0,0,0,0,0,0,0,0,0,0,0,0,0,0,0,0,0,0,0,0],"sum_hessian":[6.385E3,4.177E3,2.208E3,1.937E3,2.24E3,1.493E3,7.15E2,1.119E3,8.18E2,1.874E3,3.66E2,1.349E3,1.44E2,6.56E2,5.9E1,4.4E2,6.79E2,7.95E2,2.3E1,1.763E3,1.11E2,2.99E2,6.7E1,6.65E2,6.84E2,1.3E2,1.4E1,4.44E2,2.12E2,5E1,9E0,4.01E2,3.9E1,5E0,6.74E2,2.85E2,5.1E2,2.2E1,1E0,1.507E3,2.56E2,9.5E1,1.6E1,2.28E2,7.1E1,1E0,6.6E1,6.51E2,1.4E1,6.65E2,1.9E1,2.11E2,1E0,8E0,1E0],"tree_param":{"num_deleted":"0","num_feature":"5","num_nodes":"55","size_leaf_vector":"1"}},{"base_weights":[1.3114837E1,1.5440335E1,8.284756E0,1.7203691E1,1.1266475E1,9.630434E0,6.2700253E0,1.9108065E1,1.3718504E1,1.2510581E1,9.979089E0,1.0318674E1,7.848889E0,7.0279307E0,4.619012E0,2.0529415E1,1.5687851E1,1.5996501E1,1.2819617E1,6.6174555E-1,1.203022E1,9.257488E0,1.0858335E1,1.1204504E1,9.383221E0,8.718943E0,6.843267E0,6.435632E0,8.222564E0,5.078422E0,3.1273122E0,1.1066512E0,9.052863E-1,8.4673136E-1,7.501009E-1,8.446087E-1,7.421992E-1,6.683915E-1,5.1227134E-1,5.735678E-1,6.3862133E-1,4.812358E-1,3.7979344E-1,5.6220907E-1,4.8475382E-1,6.1742735E-1,5.323953E-1,4.371603E-1,5.367454E-1,4.4853273E-1,3.1690046E-1,3.6812514E-1,2.7766854E-1,3.8700077E-1,2.942867E-1,4.5913464E-1,3.6382517E-1,2.2195171E-1,2.879506E-1,1.711736E-1,5.7804313E-2],"categories":[],"categories_nodes":[],"categories_segments":[],"categories_sizes":[],"default_left":[0,0,0,0,0,0,0,0,0,0,0,0,0,0,0,0,0,0,0,0,0,0,0,0,0,0,0,0,0,0,0,0,0,0,0,0,0,0,0,0,0,0,0,0,0,0,0,0,0,0,0,0,0,0,0,0,0,0,0,0,0],"id":29,"left_children":[1,3,5,7,9,11,13,15,17,19,21,23,25,27,29,31,33,35,37,-1,39,41,43,45,47,49,51,53,55,57,59,-1,-1,-1,-1,-1,-1,-1,-1,-1,-1,-1,-1,-1,-1,-1,-1,-1,-1,-1,-1,-1,-1,-1,-1,-1,-1,-1,-1,-1,-1],"loss_changes":[7.1444625E4,3.1454125E4,5.5599062E3,1.9788562E4,1.9252656E3,1.4406328E3,1.0098828E3,9.162375E3,1.9879844E3,6.590625E1,3.0173047E2,6.3402344E2,2.4656445E2,3.496953E2,1.6572314E2,4.943375E3,2.3932812E2,5.790625E1,9.5389844E2,0E0,1.9398438E1,1.4350781E2,1.6664062E1,1.5697266E2,2.8678516E2,5.3416016E1,7.096289E1,2.3059668E2,1.0122656E2,6.1902832E1,3.3989136E1,0E0,0E0,0E0,0E0,0E0,0E0,0E0,0E0,0E0,0E0,0E0,0E0,0E0,0E0,0E0,0E0,0E0,0E0,0E0,0E0,0E0,0E0,0E0,0E0,0E0,0E0,0E0,0E0,0E0,0E0],"parents":[2147483647,0,0,1,1,2,2,3,3,4,4,5,5,6,6,7,7,8,8,9,9,10,10,11,11,12,12,13,13,14,14,15,15,16,16,17,17,18,18,20,20,21,21,22,22,23,23,24,24,25,25,26,26,27,27,28,28,29,29,30,30],"right_children":[2,4,6,8,10,12,14,16,18,20,22,24,26,28,30,32,34,36,38,-1,40,42,44,46,48,50,52,54,56,58,60,-1,-1,-1,-1,-1,-1,-1,-1,-1,-1,-1,-1,-1,-1,-1,-1,-1,-1,-1,-1,-1,-1,-1,-1,-1,-1,-1,-1,-1,-1],"split_conditions":[6.7E1,7.2E2,8.7E1,4.4E1,8.7E2,4.2400017E1,4.2400017E1,5.17E2,1.5507144E1,7.78E2,3.6E1,7.8E1,7.8E1,6.11E2,9.7E1,2.6E1,5.88E2,5.6E1,5.7310486E1,6.6174555E-1,3.9E1,9.72E2,9.61E2,1.1752432E1,6.86E2,7.6492805E1,6.1936268E1,9.028275E0,1.9879158E1,5.65E2,7.017391E1,1.1066512E0,9.052863E-1,8.4673136E-1,7.501009E-1,8.446087E-1,7.421992E-1,6.683915E-1,5.1227134E-1,5.735678E-1,6.3862133E-1,4.812358E-1,3.7979344E-1,5.6220907E-1,4.8475382E-1,6.1742735E-1,5.323953E-1,4.371603E-1,5.367454E-1,4.4853273E-1,3.1690046E-1,3.6812514E-1,2.7766854E-1,3.8700077E-1,2.942867E-1,4.5913464E-1,3.6382517E-1,2.2195171E-1,2.879506E-1,1.711736E-1,5.7804313E-2],"split_indices":[3,0,3,3,0,4,4,0,4,0,3,3,3,0,3,3,0,3,4,0,3,0,0,4,0,4,4,4,4,0,4,0,0,0,0,0,0,0,0,0,0,0,0,0,0,0,0,0,0,0,0,0,0,0,0,0,0,0,0,0,0],"split_type":[0,0,0,0,0,0,0,0,0,0,0,0,0,0,0,0,0,0,0,0,0,0,0,0,0,0,0,0,0,0,0,0,0,0,0,0,0,0,0,0,0,0,0,0,0,0,0,0,0,0,0,0,0,0,0,0,0,0,0,0,0],"sum_hessian":[6.371E3,4.299E3,2.072E3,3.02E3,1.279E3,1.24E3,8.32E2,1.95E3,1.07E3,6.46E2,6.33E2,8.91E2,3.49E2,5.68E2,2.64E2,1.374E3,5.76E2,2.98E2,7.72E2,2.47E2,3.99E2,3.54E2,2.79E2,4.52E2,4.39E2,1.83E2,1.66E2,3.84E2,1.84E2,2E2,6.4E1,8.22E2,5.52E2,1.96E2,3.8E2,1.6E2,1.38E2,6.33E2,1.39E2,2.37E2,1.62E2,2.86E2,6.8E1,2.03E2,7.6E1,1.41E2,3.11E2,3.03E2,1.36E2,1.63E2,2E1,1.15E2,5.1E1,1.1E2,2.74E2,8.7E1,9.7E1,1.07E2,9.3E1,5.5E1,9E0],"tree_param":{"num_deleted":"0","num_feature":"5","num_nodes":"61","size_leaf_vector":"1"}},{"base_weights":[1.2458473E1,1.5176838E1,8.671882E0,1.7356928E1,1.1087776E1,1.0726414E1,6.9034877E0,1.9248466E1,1.48671875E1,1.2701371E1,9.59462E0,1.1510077E1,9.052743E0,7.7222834E0,5.283485E0,2.1305418E1,1.6464294E1,1.5478875E1,1.1492635E1,6.80243E-1,1.2019908E1,1.0175726E1,8.51624E0,1.2278232E1,1.0599993E1,9.41696E0,7.153242E0,8.43673E0,6.0467367E0,6.40102E0,4.236707E0,1.12394E0,8.9620394E-1,8.795306E-1,7.306672E-1,8.285944E-1,7.0581055E-1,5.9946793E-1,3.6211255E-1,5.770834E-1,6.4577836E-1,4.7221166E-1,5.354531E-1,3.9454606E-1,4.747315E-1,6.27488E-1,4.6218035E-1,5.8321816E-1,5.004422E-1,5.0243133E-1,4.2492896E-1,3.7749127E-1,2.6838475E-1,4.8826692E-1,3.9532575E-1,2.7305993E-1,3.692902E-1,3.458829E-1,2.5385132E-1,2.3128863E-1,1.5548027E-1],"categories":[],"categories_nodes":[],"categories_segments":[],"categories_sizes":[],"default_left":[0,0,0,0,0,0,0,0,0,0,0,0,0,0,0,0,0,0,0,0,0,0,0,0,0,0,0,0,0,0,0,0,0,0,0,0,0,0,0,0,0,0,0,0,0,0,0,0,0,0,0,0,0,0,0,0,0,0,0,0,0],"id":30,"left_children":[1,3,5,7,9,11,13,15,17,19,21,23,25,27,29,31,33,35,37,-1,39,41,43,45,47,49,51,53,55,57,59,-1,-1,-1,-1,-1,-1,-1,-1,-1,-1,-1,-1,-1,-1,-1,-1,-1,-1,-1,-1,-1,-1,-1,-1,-1,-1,-1,-1,-1,-1],"loss_changes":[6.641481E4,3.3344E4,9.750172E3,1.12614375E4,3.0367812E3,1.5339844E3,1.8905156E3,7.6095938E3,2.0163125E3,2.2250781E2,3.4260156E2,4.6197656E2,2.1144531E2,1.1041758E3,5.4842773E2,2.7552812E3,9.83375E2,1.1020625E3,2.6575195E2,0E0,7.703125E0,7.0515625E1,7.558203E1,2.572578E2,1.3178906E2,1.0893945E2,8.334961E0,3.9758594E2,1.8861523E2,1.2630957E2,9.831494E1,0E0,0E0,0E0,0E0,0E0,0E0,0E0,0E0,0E0,0E0,0E0,0E0,0E0,0E0,0E0,0E0,0E0,0E0,0E0,0E0,0E0,0E0,0E0,0E0,0E0,0E0,0E0,0E0,0E0,0E0],"parents":[2147483647,0,0,1,1,2,2,3,3,4,4,5,5,6,6,7,7,8,8,9,9,10,10,11,11,12,12,13,13,14,14,15,15,16,16,17,17,18,18,20,20,21,21,22,22,23,23,24,24,25,25,26,26,27,27,28,28,29,29,30,30],"right_children":[2,4,6,8,10,12,14,16,18,20,22,24,26,28,30,32,34,36,38,-1,40,42,44,46,48,50,52,54,56,58,60,-1,-1,-1,-1,-1,-1,-1,-1,-1,-1,-1,-1,-1,-1,-1,-1,-1,-1,-1,-1,-1,-1,-1,-1,-1,-1,-1,-1,-1,-1],"split_conditions":[5.8E1,6.66E2,7.8E1,3.3E1,8.34E2,4.0775944E1,4.0311596E1,3.86E2,5.4730614E1,7.34E2,9.38E2,6.8E1,7.3630806E1,9.3E1,8.9E1,4.8431503E1,5.58E2,4.7E1,8.6973495E1,6.80243E-1,3.9E1,2.4E1,3.6E1,9.24E2,1.2820803E1,6.9E1,9.050639E1,8.747797E0,6.11E2,6.1936268E1,9.7E1,1.12394E0,8.9620394E-1,8.795306E-1,7.306672E-1,8.285944E-1,7.0581055E-1,5.9946793E-1,3.6211255E-1,5.770834E-1,6.4577836E-1,4.7221166E-1,5.354531E-1,3.9454606E-1,4.747315E-1,6.27488E-1,4.6218035E-1,5.8321816E-1,5.004422E-1,5.0243133E-1,4.2492896E-1,3.7749127E-1,2.6838475E-1,4.8826692E-1,3.9532575E-1,2.7305993E-1,3.692902E-1,3.458829E-1,2.5385132E-1,2.3128863E-1,1.5548027E-1],"split_indices":[3,0,3,3,0,4,4,0,4,0,0,3,4,3,3,4,0,3,4,0,3,3,3,0,4,3,4,4,0,4,3,0,0,0,0,0,0,0,0,0,0,0,0,0,0,0,0,0,0,0,0,0,0,0,0,0,0,0,0,0,0],"split_type":[0,0,0,0,0,0,0,0,0,0,0,0,0,0,0,0,0,0,0,0,0,0,0,0,0,0,0,0,0,0,0,0,0,0,0,0,0,0,0,0,0,0,0,0,0,0,0,0,0,0,0,0,0,0,0,0,0,0,0,0,0],"sum_hessian":[6.464E3,3.761E3,2.703E3,2.451E3,1.31E3,1.248E3,1.455E3,1.389E3,1.062E3,6.26E2,6.84E2,8.46E2,4.02E2,9.64E2,4.91E2,7.95E2,5.94E2,8.96E2,1.66E2,2.61E2,3.65E2,4.39E2,2.45E2,4.52E2,3.94E2,3.34E2,6.8E1,6.73E2,2.91E2,2.35E2,2.56E2,5.86E2,2.09E2,3.64E2,2.3E2,4.91E2,4.05E2,1.47E2,1.9E1,2.47E2,1.18E2,1.93E2,2.46E2,1.55E2,9E1,4.12E2,4E1,1.34E2,2.6E2,1.92E2,1.42E2,5.3E1,1.5E1,1.87E2,4.86E2,2.06E2,8.5E1,1.66E2,6.9E1,1.88E2,6.8E1],"tree_param":{"num_deleted":"0","num_feature":"5","num_nodes":"61","size_leaf_vector":"1"}},{"base_weights":[1.1892793E1,1.4016733E1,7.506953E0,1.5091537E1,1.1967609E1,8.693789E0,5.694256E0,1.534341E1,1.2285202E1,1.2543812E1,1.03668995E1,9.415322E0,7.202305E0,7.09378E0,4.8500843E0,1.61407E1,1.4493859E1,1.2676616E1,5.089156E0,6.846473E-1,1.206071E1,1.0740453E1,4.0065923E-1,1.0189835E1,8.586786E0,8.047695E0,6.4342084E0,7.581636E0,5.9675684E0,5.4474673E0,3.830837E0,8.4157485E-1,7.854532E-1,7.664546E-1,6.803686E-1,6.472545E-1,5.1092046E-1,2.9258212E-1,1.7141342E-2,6.3749117E-1,5.608536E-1,5.707461E-1,4.7711834E-1,5.553881E-1,4.8157406E-1,4.834972E-1,3.9972365E-1,4.4546175E-1,3.664843E-1,3.329576E-1,1.9713272E-1,4.1981682E-1,3.5360584E-1,3.5524008E-1,2.6024732E-1,2.9633063E-1,2.1478756E-1,2.1461348E-1,1.3254924E-1],"categories":[],"categories_nodes":[],"categories_segments":[],"categories_sizes":[],"default_left":[0,0,0,0,0,0,0,0,0,0,0,0,0,0,0,0,0,0,0,0,0,0,0,0,0,0,0,0,0,0,0,0,0,0,0,0,0,0,0,0,0,0,0,0,0,0,0,0,0,0,0,0,0,0,0,0,0,0,0],"id":31,"left_children":[1,3,5,7,9,11,13,15,17,19,21,23,25,27,29,31,33,35,37,-1,39,41,-1,43,45,47,49,51,53,55,57,-1,-1,-1,-1,-1,-1,-1,-1,-1,-1,-1,-1,-1,-1,-1,-1,-1,-1,-1,-1,-1,-1,-1,-1,-1,-1,-1,-1],"loss_changes":[5.987575E4,9.37125E3,4.4748438E3,1.8196875E3,1.2506875E3,1.2978281E3,9.520957E2,1.529125E3,6.0866016E2,4.4328125E2,2.6739062E2,4.592422E2,2.1964258E2,1.2617676E2,2.9818457E2,1.33375E2,7.3175E2,1.6878906E1,4.8660034E1,0E0,3.104453E2,1.6905078E2,0E0,1.1596484E2,1.9086914E2,5.532422E1,9.928711E1,2.9453125E1,4.8880615E1,1.5554492E2,9.5872314E1,0E0,0E0,0E0,0E0,0E0,0E0,0E0,0E0,0E0,0E0,0E0,0E0,0E0,0E0,0E0,0E0,0E0,0E0,0E0,0E0,0E0,0E0,0E0,0E0,0E0,0E0,0E0,0E0],"parents":[2147483647,0,0,1,1,2,2,3,3,4,4,5,5,6,6,7,7,8,8,9,9,10,10,11,11,12,12,13,13,14,14,15,15,16,16,17,17,18,18,20,20,21,21,23,23,24,24,25,25,26,26,27,27,28,28,29,29,30,30],"right_children":[2,4,6,8,10,12,14,16,18,20,22,24,26,28,30,32,34,36,38,-1,40,42,-1,44,46,48,50,52,54,56,58,-1,-1,-1,-1,-1,-1,-1,-1,-1,-1,-1,-1,-1,-1,-1,-1,-1,-1,-1,-1,-1,-1,-1,-1,-1,-1,-1,-1],"split_conditions":[6.7E1,4.4E1,8.7E1,4.470245E1,4.524759E1,3.9934135E1,2.2891544E1,2.2E1,5.5256607E1,1.0142187E1,7.454922E1,7.8E1,7.6E1,9.6E1,4.8083435E1,8E0,3.124112E1,5.1021362E1,4.8543137E1,6.846473E-1,5.7E1,5.8E1,4.0065923E-1,1.4131332E1,1.0739478E1,5.1913074E1,7.542064E1,4.744873E0,4.5942122E-1,9.6E1,9.6E1,8.4157485E-1,7.854532E-1,7.664546E-1,6.803686E-1,6.472545E-1,5.1092046E-1,2.9258212E-1,1.7141342E-2,6.3749117E-1,5.608536E-1,5.707461E-1,4.7711834E-1,5.553881E-1,4.8157406E-1,4.834972E-1,3.9972365E-1,4.4546175E-1,3.664843E-1,3.329576E-1,1.9713272E-1,4.1981682E-1,3.5360584E-1,3.5524008E-1,2.6024732E-1,2.9633063E-1,2.1478756E-1,2.1461348E-1,1.3254924E-1],"split_indices":[3,3,3,1,4,4,4,3,1,4,4,3,3,3,4,3,4,1,2,0,3,3,0,4,4,4,4,4,4,3,3,0,0,0,0,0,0,0,0,0,0,0,0,0,0,0,0,0,0,0,0,0,0,0,0,0,0,0,0],"split_type":[0,0,0,0,0,0,0,0,0,0,0,0,0,0,0,0,0,0,0,0,0,0,0,0,0,0,0,0,0,0,0,0,0,0,0,0,0,0,0,0,0,0,0,0,0,0,0,0,0,0,0,0,0,0,0,0,0,0,0],"sum_hessian":[6.438E3,4.336E3,2.102E3,2.84E3,1.496E3,1.268E3,8.34E2,2.602E3,2.38E2,1.095E3,4.01E2,8.51E2,4.17E2,3.11E2,5.23E2,1.333E3,1.269E3,2.25E2,1.3E1,3.16E2,7.79E2,3.43E2,5.8E1,4.34E2,4.17E2,1.94E2,2.23E2,2.13E2,9.8E1,3.27E2,1.96E2,4.98E2,8.35E2,6.45E2,6.24E2,1.99E2,2.6E1,1.1E1,2E0,4.21E2,3.58E2,2.14E2,1.29E2,1.57E2,2.77E2,1.42E2,2.75E2,8.3E1,1.11E2,2.03E2,2E1,7.6E1,1.37E2,3.6E1,6.2E1,2.28E2,9.9E1,1.39E2,5.7E1],"tree_param":{"num_deleted":"0","num_feature":"5","num_nodes":"59","size_leaf_vector":"1"}},{"base_weights":[1.1220862E1,1.3320135E1,7.169454E0,1.4922551E1,9.481175E0,8.436958E0,5.5036316E0,1.65491E1,1.1894829E1,1.0389589E1,8.042659E0,8.985027E0,6.6281524E0,6.812062E0,4.7034535E0,1.8191061E1,1.4072148E1,1.390073E1,1.1153645E1,9.839385E0,1.1179699E1,7.2997947E0,9.052265E0,9.830764E0,8.295561E0,7.3972154E0,5.6589108E0,6.2198286E0,4.1756186E-1,5.333777E0,3.758069E0,1.0199624E0,8.119852E-1,7.716699E-1,6.478377E-1,7.350141E-1,6.451758E-1,6.158109E-1,5.0339097E-1,5.166844E-1,4.4467616E-1,5.6050974E-1,2.196679E-1,3.8619867E-1,3.1872988E-1,4.7478482E-1,4.0006867E-1,5.4693913E-1,4.6584725E-1,3.6869368E-1,4.5174152E-1,3.3726996E-1,4.0455705E-1,2.927822E-1,1.4723147E-1,3.3734524E-1,2.5040922E-1,2.3973475E-1,3.1470346E-1,2.209299E-1,1.4438036E-1],"categories":[],"categories_nodes":[],"categories_segments":[],"categories_sizes":[],"default_left":[0,0,0,0,0,0,0,0,0,0,0,0,0,0,0,0,0,0,0,0,0,0,0,0,0,0,0,0,0,0,0,0,0,0,0,0,0,0,0,0,0,0,0,0,0,0,0,0,0,0,0,0,0,0,0,0,0,0,0,0,0],"id":32,"left_children":[1,3,5,7,9,11,13,15,17,19,21,23,25,27,29,31,33,35,37,39,41,43,45,47,49,51,53,55,-1,57,59,-1,-1,-1,-1,-1,-1,-1,-1,-1,-1,-1,-1,-1,-1,-1,-1,-1,-1,-1,-1,-1,-1,-1,-1,-1,-1,-1,-1,-1,-1],"loss_changes":[5.4124E4,2.5683E4,4.5522734E3,1.4380375E4,1.5355156E3,1.1647656E3,9.5630664E2,7.5649375E3,1.3882031E3,2.1864844E2,2.9692188E2,4.6948438E2,1.7505273E2,2.7256836E2,3.3093848E2,4.6369688E3,9.706719E2,3.0375E1,8.391719E2,1.2036328E2,1.34609375E1,6.221875E1,1.76875E1,1.366289E2,2.9246484E2,1.7339844E1,5.377832E1,1.3289258E2,0E0,1.5152734E2,1.24657715E2,0E0,0E0,0E0,0E0,0E0,0E0,0E0,0E0,0E0,0E0,0E0,0E0,0E0,0E0,0E0,0E0,0E0,0E0,0E0,0E0,0E0,0E0,0E0,0E0,0E0,0E0,0E0,0E0,0E0,0E0],"parents":[2147483647,0,0,1,1,2,2,3,3,4,4,5,5,6,6,7,7,8,8,9,9,10,10,11,11,12,12,13,13,14,14,15,15,16,16,17,17,18,18,19,19,20,20,21,21,22,22,23,23,24,24,25,25,26,26,27,27,29,29,30,30],"right_children":[2,4,6,8,10,12,14,16,18,20,22,24,26,28,30,32,34,36,38,40,42,44,46,48,50,52,54,56,-1,58,60,-1,-1,-1,-1,-1,-1,-1,-1,-1,-1,-1,-1,-1,-1,-1,-1,-1,-1,-1,-1,-1,-1,-1,-1,-1,-1,-1,-1,-1,-1],"split_conditions":[6.6E1,7.15E2,8.6E1,4.3E1,8.95E2,4.6819046E1,2.2891544E1,4.39E2,1.5507144E1,3.9E1,4E1,7.5E1,7.8E1,6.92E2,4.7053516E1,2E1,5.62E2,5.6E1,5.4E1,8.34E2,9.509686E1,9.65E2,9.61E2,1.2589271E1,4.39E2,5.88E2,8.477804E1,9.6E1,4.1756186E-1,6.15E2,9.4E1,1.0199624E0,8.119852E-1,7.716699E-1,6.478377E-1,7.350141E-1,6.451758E-1,6.158109E-1,5.0339097E-1,5.166844E-1,4.4467616E-1,5.6050974E-1,2.196679E-1,3.8619867E-1,3.1872988E-1,4.7478482E-1,4.0006867E-1,5.4693913E-1,4.6584725E-1,3.6869368E-1,4.5174152E-1,3.3726996E-1,4.0455705E-1,2.927822E-1,1.4723147E-1,3.3734524E-1,2.5040922E-1,2.3973475E-1,3.1470346E-1,2.209299E-1,1.4438036E-1],"split_indices":[3,0,3,3,0,4,4,0,4,3,3,3,3,0,4,3,0,3,3,0,4,0,0,4,0,0,4,3,0,0,3,0,0,0,0,0,0,0,0,0,0,0,0,0,0,0,0,0,0,0,0,0,0,0,0,0,0,0,0,0,0],"split_type":[0,0,0,0,0,0,0,0,0,0,0,0,0,0,0,0,0,0,0,0,0,0,0,0,0,0,0,0,0,0,0,0,0,0,0,0,0,0,0,0,0,0,0,0,0,0,0,0,0,0,0,0,0,0,0,0,0,0,0,0,0],"sum_hessian":[6.374E3,4.197E3,2.177E3,2.959E3,1.238E3,1.234E3,9.43E2,1.922E3,1.037E3,7.55E2,4.83E2,9.44E2,2.9E2,3.55E2,5.88E2,1.152E3,7.7E2,2.75E2,7.62E2,4.53E2,3.02E2,2.83E2,2E2,4.18E2,5.26E2,1.58E2,1.32E2,2.6E2,9.5E1,3.5E2,2.38E2,5.36E2,6.16E2,3.41E2,4.29E2,1.45E2,1.3E2,3.63E2,3.99E2,2.91E2,1.62E2,3E2,2E0,1.89E2,9.4E1,1.35E2,6.5E1,1.26E2,2.92E2,2.39E2,2.87E2,8.7E1,7.1E1,1.22E2,1E1,1.78E2,8.2E1,2.28E2,1.22E2,1.33E2,1.05E2],"tree_param":{"num_deleted":"0","num_feature":"5","num_nodes":"61","size_leaf_vector":"1"}},{"base_weights":[1.0748969E1,1.3029564E1,7.3761883E0,1.3963462E1,1.1691574E1,9.168101E0,5.9187865E0,1.4221709E1,1.0192584E1,1.2051201E1,9.735102E0,9.842464E0,7.719131E0,6.5267076E0,4.323968E0,1.5054212E1,1.3730007E1,1.0761071E1,3.461287E0,1.3096871E1,1.1650853E1,9.939617E0,2.7814797E-1,1.0503154E1,9.127321E0,8.087951E0,6.285153E0,7.1687927E0,5.1293645E0,5.2495403E0,3.3673651E0,7.572405E-1,5.4452467E-1,7.198478E-1,6.465922E-1,5.6308633E-1,4.3510112E-1,8.662968E-2,2.5946653E-1,6.575089E-1,3.335713E-1,6.0444015E-1,5.3575474E-1,5.0223356E-1,2.5189576E-1,5.7772875E-1,5.037747E-1,4.9966374E-1,4.3380165E-1,4.261144E-1,3.4503254E-1,3.3284977E-1,2.3607028E-1,4.1819268E-1,3.357152E-1,3.3011785E-1,2.3236191E-1,2.7096987E-1,1.5461504E-1,1.802962E-1,6.925463E-2],"categories":[],"categories_nodes":[],"categories_segments":[],"categories_sizes":[],"default_left":[0,0,0,0,0,0,0,0,0,0,0,0,0,0,0,0,0,0,0,0,0,0,0,0,0,0,0,0,0,0,0,0,0,0,0,0,0,0,0,0,0,0,0,0,0,0,0,0,0,0,0,0,0,0,0,0,0,0,0,0,0],"id":33,"left_children":[1,3,5,7,9,11,13,15,17,19,21,23,25,27,29,31,33,35,37,39,41,43,-1,45,47,49,51,53,55,57,59,-1,-1,-1,-1,-1,-1,-1,-1,-1,-1,-1,-1,-1,-1,-1,-1,-1,-1,-1,-1,-1,-1,-1,-1,-1,-1,-1,-1,-1,-1],"loss_changes":[4.9378438E4,4.63E3,6.7278906E3,2.0500312E3,9.9646875E2,1.0604297E3,1.363043E3,6.5578125E2,5.2909766E2,4.0545312E2,1.588789E2,2.7739844E2,1.4696875E2,8.9364453E2,3.356001E2,1.26296875E2,5.250156E2,4.2200195E1,2.9843353E1,3.591797E1,2.6921875E2,7.195117E1,0E0,6.524219E1,6.453711E1,9.2802734E1,1.5668213E1,3.2838672E2,2.0367285E2,5.689209E1,8.911011E1,0E0,0E0,0E0,0E0,0E0,0E0,0E0,0E0,0E0,0E0,0E0,0E0,0E0,0E0,0E0,0E0,0E0,0E0,0E0,0E0,0E0,0E0,0E0,0E0,0E0,0E0,0E0,0E0,0E0,0E0],"parents":[2147483647,0,0,1,1,2,2,3,3,4,4,5,5,6,6,7,7,8,8,9,9,10,10,11,11,12,12,13,13,14,14,15,15,16,16,17,17,18,18,19,19,20,20,21,21,23,23,24,24,25,25,26,26,27,27,28,28,29,29,30,30],"right_children":[2,4,6,8,10,12,14,16,18,20,22,24,26,28,30,32,34,36,38,40,42,44,-1,46,48,50,52,54,56,58,60,-1,-1,-1,-1,-1,-1,-1,-1,-1,-1,-1,-1,-1,-1,-1,-1,-1,-1,-1,-1,-1,-1,-1,-1,-1,-1,-1,-1,-1,-1],"split_conditions":[5.9E1,3.4E1,7.8E1,4.571415E1,5.507249E1,4.0775944E1,4.440042E1,1.2E1,5.5256607E1,1.2589271E1,9.509686E1,6.8E1,6.796473E1,9.3E1,9E1,4.408811E1,3.281692E1,4.959922E1,3.281692E1,5.2345688E1,5.1E1,4.8282055E1,2.7814797E-1,6.187846E0,1.1752432E1,7.2E1,8.6973495E1,1.0739478E1,5.9660788E0,7.968118E1,7.454922E1,7.572405E-1,5.4452467E-1,7.198478E-1,6.465922E-1,5.6308633E-1,4.3510112E-1,8.662968E-2,2.5946653E-1,6.575089E-1,3.335713E-1,6.0444015E-1,5.3575474E-1,5.0223356E-1,2.5189576E-1,5.7772875E-1,5.037747E-1,4.9966374E-1,4.3380165E-1,4.261144E-1,3.4503254E-1,3.3284977E-1,2.3607028E-1,4.1819268E-1,3.357152E-1,3.3011785E-1,2.3236191E-1,2.7096987E-1,1.5461504E-1,1.802962E-1,6.925463E-2],"split_indices":[3,3,3,1,4,4,4,3,1,4,4,3,4,3,3,1,4,1,4,1,3,1,0,4,4,3,4,4,4,4,4,0,0,0,0,0,0,0,0,0,0,0,0,0,0,0,0,0,0,0,0,0,0,0,0,0,0,0,0,0,0],"split_type":[0,0,0,0,0,0,0,0,0,0,0,0,0,0,0,0,0,0,0,0,0,0,0,0,0,0,0,0,0,0,0,0,0,0,0,0,0,0,0,0,0,0,0,0,0,0,0,0,0,0,0,0,0,0,0,0,0,0,0,0,0],"sum_hessian":[6.431E3,3.835E3,2.596E3,2.253E3,1.582E3,1.162E3,1.434E3,2.106E3,1.47E2,1.332E3,2.5E2,7.89E2,3.73E2,1.036E3,3.98E2,7.71E2,1.335E3,1.35E2,1.2E1,3.6E2,9.72E2,2.37E2,1.3E1,4.03E2,3.86E2,2.93E2,8E1,7.07E2,3.29E2,2E2,1.98E2,7.52E2,1.9E1,7.18E2,6.17E2,1.05E2,3E1,7E0,5E0,3.56E2,4E0,6.54E2,3.18E2,2.31E2,6E0,1.09E2,2.94E2,1.25E2,2.61E2,2.1E2,8.3E1,6.2E1,1.8E1,1.9E2,5.17E2,7.8E1,2.51E2,1.84E2,1.6E1,1.76E2,2.2E1],"tree_param":{"num_deleted":"0","num_feature":"5","num_nodes":"61","size_leaf_vector":"1"}},{"base_weights":[1.020665E1,1.2409542E1,7.0986624E0,1.3226474E1,1.1283558E1,8.410958E0,5.28534E0,1.3489871E1,9.414239E0,1.1684887E1,9.718724E0,9.487678E0,7.652342E0,6.4348817E0,4.4075446E0,1.4272849E1,1.3158823E1,9.796666E0,3.969266E0,1.2946876E1,1.1314678E1,1.0039835E1,3.5491213E-1,5.174107E-1,8.744994E0,8.551339E0,6.7443905E0,6.9431205E0,5.092149E0,4.9675975E0,3.282522E0,7.200645E-1,5.8036083E-1,7.2044915E-1,6.3950354E-1,5.023212E-1,3.5894033E-1,2.5019023E-1,4.5393657E-2,6.878959E-1,5.9953976E-1,5.8584946E-1,5.2231205E-1,5.059557E-1,2.3136108E-1,4.7120652E-1,4.1322374E-1,